{"learner":{"attributes":{"scikit_learn":"{\"_estimator_type\": \"classifier\"}"},"feature_names":[],"feature_types":[],"gradient_booster":{"model":{"cats":{"enc":[],"feature_segments":[],"sorted_idx":[]},"gbtree_model_param":{"num_parallel_tree":"1","num_trees":"100"},"iteration_indptr":[0,1,2,3,4,5,6,7,8,9,10,11,12,13,14,15,16,17,18,19,20,21,22,23,24,25,26,27,28,29,30,31,32,33,34,35,36,37,38,39,40,41,42,43,44,45,46,47,48,49,50,51,52,53,54,55,56,57,58,59,60,61,62,63,64,65,66,67,68,69,70,71,72,73,74,75,76,77,78,79,80,81,82,83,84,85,86,87,88,89,90,91,92,93,94,95,96,97,98,99,100],"tree_info":[0,0,0,0,0,0,0,0,0,0,0,0,0,0,0,0,0,0,0,0,0,0,0,0,0,0,0,0,0,0,0,0,0,0,0,0,0,0,0,0,0,0,0,0,0,0,0,0,0,0,0,0,0,0,0,0,0,0,0,0,0,0,0,0,0,0,0,0,0,0,0,0,0,0,0,0,0,0,0,0,0,0,0,0,0,0,0,0,0,0,0,0,0,0,0,0,0,0,0,0],"trees":[{"base_weights":[2.3260348E-8,-1.9083968E-1,1.5625E-1,2.0121214E-1,-1.4581673E0,1.02608696E-1,-1.1235953E-2,-1.7419355E-1,1.935484E-2],"categories":[],"categories_nodes":[],"categories_segments":[],"categories_sizes":[],"default_left":[0,0,0,0,0,0,0,0,0],"id":0,"left_children":[1,3,-1,5,7,-1,-1,-1,-1],"loss_changes":[1.2523855E1,1.889009E1,0E0,7.7364454E0,4.538748E0,0E0,0E0,0E0,0E0],"parents":[2147483647,0,0,1,1,3,3,4,4],"right_children":[2,4,-1,6,8,-1,-1,-1,-1],"split_conditions":[3.1815942E6,4.037855E-1,1.5625E-1,1.287482E4,5.104142E1,1.02608696E-1,-1.1235953E-2,-1.7419355E-1,1.935484E-2],"split_indices":[4,10,0,4,11,0,0,0,0],"split_type":[0,0,0,0,0,0,0,0,0],"sum_hessian":[4E1,3.6428574E1,3.5714288E0,2.8464287E1,7.964286E0,7.214286E0,2.125E1,6.75E0,1.2142857E0],"tree_param":{"num_deleted":"0","num_feature":"13","num_nodes":"9","size_leaf_vector":"1"}},{"base_weights":[2.2391554E-3,-1.7384163E-1,1.4475518E-1,1.8433674E-1,-1.3375728E0,7.246093E-2,-2.317169E-2,-1.6011265E-1,1.829441E-2],"categories":[],"categories_nodes":[],"categories_segments":[],"categories_sizes":[],"default_left":[0,0,0,0,0,0,0,0,0],"id":1,"left_children":[1,3,-1,5,7,-1,-1,-1,-1],"loss_changes":[1.0662293E1,1.5818202E1,0E0,6.786543E0,3.8647814E0,0E0,0E0,0E0,0E0],"parents":[2147483647,0,0,1,1,3,3,4,4],"right_children":[2,4,-1,6,8,-1,-1,-1,-1],"split_conditions":[3.1815942E6,4.037855E-1,1.4475518E-1,1.0465298E0,5.104142E1,7.246093E-2,-2.317169E-2,-1.6011265E-1,1.829441E-2],"split_indices":[4,10,0,11,11,0,0,0,0],"split_type":[0,0,0,0,0,0,0,0,0],"sum_hessian":[3.9907604E1,3.6357883E1,3.5497189E0,2.8444658E1,7.913225E0,1.205232E1,1.639234E1,6.6990533E0,1.214172E0],"tree_param":{"num_deleted":"0","num_feature":"13","num_nodes":"9","size_leaf_vector":"1"}},{"base_weights":[3.196706E-3,-1.1028969E0,2.0285994E-1,2.5782436E-2,-1.4684063E-1,-1.4019006E-1,8.4159124E-1,7.751658E-2,-5.4537512E-2,2.716045E-3,1.0869674E-1],"categories":[],"categories_nodes":[],"categories_segments":[],"categories_sizes":[],"default_left":[0,0,0,0,0,0,0,0,0,0,0],"id":2,"left_children":[1,3,5,-1,-1,7,9,-1,-1,-1,-1],"loss_changes":[9.205626E0,3.5488706E0,7.851948E0,0E0,0E0,9.257423E0,2.463665E0,0E0,0E0,0E0,0E0],"parents":[2147483647,0,0,1,1,2,2,5,5,6,6],"right_children":[2,4,6,-1,-1,8,10,-1,-1,-1,-1],"split_conditions":[6.295E4,1.265E1,7.329984E0,2.5782436E-2,-1.4684063E-1,3.361841E4,1.05E1,7.751658E-2,-5.4537512E-2,2.716045E-3,1.0869674E-1],"split_indices":[2,1,11,0,0,3,1,0,0,0,0],"split_type":[0,0,0,0,0,0,0,0,0,0,0],"sum_hessian":[3.9670345E1,5.374259E0,3.4296085E1,1.2003187E0,4.17394E0,2.282028E1,1.1475805E1,6.721833E0,1.6098448E1,2.9141388E0,8.5616665E0],"tree_param":{"num_deleted":"0","num_feature":"13","num_nodes":"11","size_leaf_vector":"1"}},{"base_weights":[3.1792799E-3,-1.7434506E-1,1.1244587E-1,3.0787164E-1,-7.443229E-1,1.0497433E-1,-3.3579778E-2,3.0320922E-2,-9.429275E-2],"categories":[],"categories_nodes":[],"categories_segments":[],"categories_sizes":[],"default_left":[0,0,0,0,0,0,0,0,0],"id":3,"left_children":[1,3,-1,5,7,-1,-1,-1,-1],"loss_changes":[8.25136E0,1.006955E1,0E0,9.951469E0,3.760398E0,0E0,0E0,0E0,0E0],"parents":[2147483647,0,0,1,1,3,3,4,4],"right_children":[2,4,-1,6,8,-1,-1,-1,-1],"split_conditions":[1.1705818E5,2.886319E-1,1.1244587E-1,3.361841E4,5.44E0,1.0497433E-1,-3.3579778E-2,3.0320922E-2,-9.429275E-2],"split_indices":[3,10,0,3,1,0,0,0,0],"split_type":[0,0,0,0,0,0,0,0,0],"sum_hessian":[3.946792E1,3.4802406E1,4.66551E0,1.9101702E1,1.5700705E1,8.580841E0,1.0520862E1,2.4183767E0,1.3282328E1],"tree_param":{"num_deleted":"0","num_feature":"13","num_nodes":"9","size_leaf_vector":"1"}},{"base_weights":[5.9274333E-3,-1.41906E-1,1.2502047E-1,1.49841E-1,-1.1250656E0,3.782555E-2,-7.697775E-2,-1.3859257E-1,2.4989216E-2],"categories":[],"categories_nodes":[],"categories_segments":[],"categories_sizes":[],"default_left":[0,0,0,0,0,0,0,0,0],"id":4,"left_children":[1,3,-1,5,7,-1,-1,-1,-1],"loss_changes":[7.5665026E0,1.07247E1,0E0,6.437975E0,3.4091263E0,0E0,0E0,0E0,0E0],"parents":[2147483647,0,0,1,1,3,3,4,4],"right_children":[2,4,-1,6,8,-1,-1,-1,-1],"split_conditions":[3.1815942E6,4.037855E-1,1.2502047E-1,3.8545046E8,5.104142E1,3.782555E-2,-7.697775E-2,-1.3859257E-1,2.4989216E-2],"split_indices":[4,10,0,0,11,0,0,0,0],"split_type":[0,0,0,0,0,0,0,0,0],"sum_hessian":[3.916994E1,3.5802208E1,3.3677318E0,2.8262936E1,7.539273E0,2.3111254E1,5.151683E0,6.330297E0,1.2089756E0],"tree_param":{"num_deleted":"0","num_feature":"13","num_nodes":"9","size_leaf_vector":"1"}},{"base_weights":[4.4641844E-3,-1.332943E-1,1.1849787E-1,1.3371436E-1,-1.0573175E0,6.321985E-2,-2.4566773E-2,-1.3113971E-1,2.3606418E-2],"categories":[],"categories_nodes":[],"categories_segments":[],"categories_sizes":[],"default_left":[0,0,0,0,0,0,0,0,0],"id":5,"left_children":[1,3,-1,5,7,-1,-1,-1,-1],"loss_changes":[6.6277294E0,9.152851E0,0E0,5.6820903E0,3.0372953E0,0E0,0E0,0E0,0E0],"parents":[2147483647,0,0,1,1,3,3,4,4],"right_children":[2,4,-1,6,8,-1,-1,-1,-1],"split_conditions":[3.1815942E6,4.037855E-1,1.1849787E-1,1.0465298E0,5.104142E1,6.321985E-2,-2.4566773E-2,-1.3113971E-1,2.3606418E-2],"split_indices":[4,10,0,11,11,0,0,0,0],"split_type":[0,0,0,0,0,0,0,0,0],"sum_hessian":[3.87832E1,3.5524776E1,3.2584255E0,2.8224287E1,7.3004885E0,1.1909528E1,1.631476E1,6.0901704E0,1.2103181E0],"tree_param":{"num_deleted":"0","num_feature":"13","num_nodes":"9","size_leaf_vector":"1"}},{"base_weights":[5.1259384E-3,-1.23402625E-1,1.1280036E-1,1.22048475E-1,-9.984092E-1,3.204721E-2,-7.13509E-2,-1.2478703E-1,2.230393E-2],"categories":[],"categories_nodes":[],"categories_segments":[],"categories_sizes":[],"default_left":[0,0,0,0,0,0,0,0,0],"id":6,"left_children":[1,3,-1,5,7,-1,-1,-1,-1],"loss_changes":[5.814459E0,7.893613E0,0E0,5.0615983E0,2.726923E0,0E0,0E0,0E0,0E0],"parents":[2147483647,0,0,1,1,3,3,4,4],"right_children":[2,4,-1,6,8,-1,-1,-1,-1],"split_conditions":[3.1815942E6,4.037855E-1,1.1280036E-1,9.775E1,5.104142E1,3.204721E-2,-7.13509E-2,-1.2478703E-1,2.230393E-2],"split_indices":[4,10,0,1,11,0,0,0,0],"split_type":[0,0,0,0,0,0,0,0,0],"sum_hessian":[3.832364E1,3.5186203E1,3.1374362E0,2.8150208E1,7.035994E0,2.324627E1,4.9039383E0,5.8247514E0,1.2112428E0],"tree_param":{"num_deleted":"0","num_feature":"13","num_nodes":"9","size_leaf_vector":"1"}},{"base_weights":[3.6758392E-3,-1.1648573E-1,1.0775912E-1,1.0868231E-1,-9.463883E-1,3.0827457E-2,-6.8727545E-2,-1.1928516E-1,2.1076495E-2],"categories":[],"categories_nodes":[],"categories_segments":[],"categories_sizes":[],"default_left":[0,0,0,0,0,0,0,0,0],"id":7,"left_children":[1,3,-1,5,7,-1,-1,-1,-1],"loss_changes":[5.1415596E0,6.8042517E0,0E0,4.835741E0,2.4635167E0,0E0,0E0,0E0,0E0],"parents":[2147483647,0,0,1,1,3,3,4,4],"right_children":[2,4,-1,6,8,-1,-1,-1,-1],"split_conditions":[3.1815942E6,4.037855E-1,1.0775912E-1,3.8545046E8,5.104142E1,3.0827457E-2,-6.8727545E-2,-1.1928516E-1,2.1076495E-2],"split_indices":[4,10,0,0,11,0,0,0,0],"split_type":[0,0,0,0,0,0,0,0,0],"sum_hessian":[3.7870934E1,3.4861748E1,3.0091872E0,2.8105297E1,6.7564487E0,2.2960485E1,5.1448107E0,5.5446405E0,1.2118087E0],"tree_param":{"num_deleted":"0","num_feature":"13","num_nodes":"9","size_leaf_vector":"1"}},{"base_weights":[2.3580303E-3,-1.1020367E-1,1.0324681E-1,9.675863E-2,-8.998225E-1,7.178377E-2,-1.3001605E-2,-1.1445143E-1,1.9919269E-2],"categories":[],"categories_nodes":[],"categories_segments":[],"categories_sizes":[],"default_left":[0,0,0,0,0,0,0,0,0],"id":8,"left_children":[1,3,-1,5,7,-1,-1,-1,-1],"loss_changes":[4.5639725E0,5.8889785E0,0E0,4.1824484E0,2.2368207E0,0E0,0E0,0E0,0E0],"parents":[2147483647,0,0,1,1,3,3,4,4],"right_children":[2,4,-1,6,8,-1,-1,-1,-1],"split_conditions":[3.1815942E6,4.037855E-1,1.0324681E-1,1.287482E4,5.104142E1,7.178377E-2,-1.3001605E-2,-1.1445143E-1,1.9919269E-2],"split_indices":[4,10,0,4,11,0,0,0,0],"split_type":[0,0,0,0,0,0,0,0,0],"sum_hessian":[3.7379944E1,3.450279E1,2.8771546E0,2.8032751E1,6.4700365E0,6.9187107E0,2.111404E1,5.2579684E0,1.2120681E0],"tree_param":{"num_deleted":"0","num_feature":"13","num_nodes":"9","size_leaf_vector":"1"}},{"base_weights":[3.7767573E-3,-1.1062333E-1,9.365114E-2,-1.338854E-1,1.5700137E-2,4.5871593E-2,-4.900975E-2],"categories":[],"categories_nodes":[],"categories_segments":[],"categories_sizes":[],"default_left":[0,0,0,0,0,0,0],"id":9,"left_children":[1,3,-1,-1,5,-1,-1],"loss_changes":[4.1434593E0,5.3921876E0,0E0,0E0,7.480003E0,0E0,0E0],"parents":[2147483647,0,0,1,1,4,4],"right_children":[2,4,-1,-1,6,-1,-1],"split_conditions":[1.437091E5,8.5632294E-2,9.365114E-2,-1.338854E-1,2.886319E-1,4.5871593E-2,-4.900975E-2],"split_indices":[3,10,0,0,10,0,0],"split_type":[0,0,0,0,0,0,0],"sum_hessian":[3.6860104E1,3.361822E1,3.2418828E0,2.2400284E0,3.1378195E1,1.6776848E1,1.4601347E1],"tree_param":{"num_deleted":"0","num_feature":"13","num_nodes":"7","size_leaf_vector":"1"}},{"base_weights":[2.34313E-3,-1.0136791E-1,9.805301E-2,8.081672E-2,-8.304188E-1,2.5722278E-2,-6.507567E-2,-1.0839522E-1,2.1517176E-2],"categories":[],"categories_nodes":[],"categories_segments":[],"categories_sizes":[],"default_left":[0,0,0,0,0,0,0,0,0],"id":10,"left_children":[1,3,-1,5,7,-1,-1,-1,-1],"loss_changes":[3.9085586E0,4.6965694E0,0E0,3.8838098E0,2.1040506E0,0E0,0E0,0E0,0E0],"parents":[2147483647,0,0,1,1,3,3,4,4],"right_children":[2,4,-1,6,8,-1,-1,-1,-1],"split_conditions":[3.1815942E6,4.037855E-1,9.805301E-2,9.775E1,5.104142E1,2.5722278E-2,-6.507567E-2,-1.0839522E-1,2.1517176E-2],"split_indices":[4,10,0,1,11,0,0,0,0],"split_type":[0,0,0,0,0,0,0,0,0],"sum_hessian":[3.6547657E1,3.3854633E1,2.6930232E0,2.7797407E1,6.057226E0,2.2919235E1,4.8781724E0,4.8455863E0,1.2116398E0],"tree_param":{"num_deleted":"0","num_feature":"13","num_nodes":"9","size_leaf_vector":"1"}},{"base_weights":[1.144893E-3,-9.623445E-2,9.441905E-2,8.750421E-2,-7.7570665E-1,8.485376E-2,-2.897427E-2,-5.153439E-3,-1.3253279E-1],"categories":[],"categories_nodes":[],"categories_segments":[],"categories_sizes":[],"default_left":[0,0,0,0,0,0,0,0,0],"id":11,"left_children":[1,3,-1,5,7,-1,-1,-1,-1],"loss_changes":[3.495284E0,4.376232E0,0E0,8.302573E0,2.8957167E0,0E0,0E0,0E0,0E0],"parents":[2147483647,0,0,1,1,3,3,4,4],"right_children":[2,4,-1,6,8,-1,-1,-1,-1],"split_conditions":[3.1815942E6,3.8545046E8,9.441905E-2,3.361841E4,4.009E1,8.485376E-2,-2.897427E-2,-5.153439E-3,-1.3253279E-1],"split_indices":[4,0,0,3,1,0,0,0,0],"split_type":[0,0,0,0,0,0,0,0,0],"sum_hessian":[3.6071804E1,3.3509544E1,2.5622585E0,2.7062649E1,6.446896E0,8.555019E0,1.850763E1,3.2536721E0,3.1932237E0],"tree_param":{"num_deleted":"0","num_feature":"13","num_nodes":"9","size_leaf_vector":"1"}},{"base_weights":[1.5038891E-3,-7.3616195E-1,1.21539116E-1,4.591938E-2,-1.1485113E-1,-1.4817405E-1,6.474274E-1,5.973193E-3,-1.3003115E-1,8.116647E-2,1.8090922E-3],"categories":[],"categories_nodes":[],"categories_segments":[],"categories_sizes":[],"default_left":[0,0,0,0,0,0,0,0,0,0,0],"id":12,"left_children":[1,3,5,-1,-1,7,9,-1,-1,-1,-1],"loss_changes":[3.3411856E0,3.130491E0,4.6975183E0,0E0,0E0,5.409259E0,1.1413383E0,0E0,0E0,0E0,0E0],"parents":[2147483647,0,0,1,1,2,2,5,5,6,6],"right_children":[2,4,6,-1,-1,8,10,-1,-1,-1,-1],"split_conditions":[6.295E4,1.265E1,7.329984E0,4.591938E-2,-1.1485113E-1,1.670484E5,3.9667837E8,5.973193E-3,-1.3003115E-1,8.116647E-2,1.8090922E-3],"split_indices":[2,1,11,0,0,4,0,0,0,0,0],"split_type":[0,0,0,0,0,0,0,0,0,0,0],"sum_hessian":[3.5723476E1,4.2811522E0,3.1442326E1,1.0689061E0,3.2122464E0,2.1257961E1,1.0184364E1,1.8811531E1,2.4464302E0,7.846862E0,2.337503E0],"tree_param":{"num_deleted":"0","num_feature":"13","num_nodes":"11","size_leaf_vector":"1"}},{"base_weights":[-1.8259026E-3,-1.0198194E-1,8.5072935E-2,-1.2117987E-1,1.4400217E-2,3.9981198E-2,-4.3886017E-2],"categories":[],"categories_nodes":[],"categories_segments":[],"categories_sizes":[],"default_left":[0,0,0,0,0,0,0],"id":13,"left_children":[1,3,-1,-1,5,-1,-1],"loss_changes":[3.1969502E0,4.3428283E0,0E0,0E0,5.6428995E0,0E0,0E0],"parents":[2147483647,0,0,1,1,4,4],"right_children":[2,4,-1,-1,6,-1,-1],"split_conditions":[1.437091E5,8.5632294E-2,8.5072935E-2,-1.2117987E-1,2.886319E-1,3.9981198E-2,-4.3886017E-2],"split_indices":[3,10,0,0,10,0,0],"split_type":[0,0,0,0,0,0,0],"sum_hessian":[3.542398E1,3.2487778E1,2.936201E0,2.1901674E0,3.029761E1,1.6438074E1,1.3859536E1],"tree_param":{"num_deleted":"0","num_feature":"13","num_nodes":"7","size_leaf_vector":"1"}},{"base_weights":[-2.7382767E-3,1.0927407E-1,-7.673793E-2,-1.0807109E-1,2.0520614E-2,-7.2748475E-2,1.3158999E-2],"categories":[],"categories_nodes":[],"categories_segments":[],"categories_sizes":[],"default_left":[0,0,0,0,0,0,0],"id":14,"left_children":[1,-1,3,-1,5,-1,-1],"loss_changes":[3.0095632E0,0E0,3.4145162E0,0E0,2.8086925E0,0E0,0E0],"parents":[2147483647,0,0,2,2,4,4],"right_children":[2,-1,4,-1,6,-1,-1],"split_conditions":[4.59E0,1.0927407E-1,1.07409395E-1,-1.0807109E-1,2.349464E4,-7.2748475E-2,1.3158999E-2],"split_indices":[1,0,11,0,3,0,0],"split_type":[0,0,0,0,0,0,0],"sum_hessian":[3.509087E1,1.3492947E0,3.3741573E1,2.08694E0,3.1654633E1,3.375079E0,2.8279554E1],"tree_param":{"num_deleted":"0","num_feature":"13","num_nodes":"7","size_leaf_vector":"1"}},{"base_weights":[-4.229367E-3,-8.993036E-2,8.75616E-2,7.894878E-2,-7.163929E-1,7.788181E-2,-2.6438266E-2,-4.7586453E-3,-1.2386757E-1],"categories":[],"categories_nodes":[],"categories_segments":[],"categories_sizes":[],"default_left":[0,0,0,0,0,0,0,0,0],"id":15,"left_children":[1,3,-1,5,7,-1,-1,-1,-1],"loss_changes":[2.7881126E0,3.6165187E0,0E0,6.7909713E0,2.4714882E0,0E0,0E0,0E0,0E0],"parents":[2147483647,0,0,1,1,3,3,4,4],"right_children":[2,4,-1,6,8,-1,-1,-1,-1],"split_conditions":[3.1815942E6,3.8545046E8,8.75616E-2,3.361841E4,4.009E1,7.788181E-2,-2.6438266E-2,-4.7586453E-3,-1.2386757E-1],"split_indices":[4,0,0,3,1,0,0,0,0],"split_type":[0,0,0,0,0,0,0,0,0],"sum_hessian":[3.4931538E1,3.264915E1,2.2823892E0,2.6404982E1,6.244168E0,8.272782E0,1.8132198E1,3.21646E0,3.0277076E0],"tree_param":{"num_deleted":"0","num_feature":"13","num_nodes":"9","size_leaf_vector":"1"}},{"base_weights":[-3.4589146E-3,1.0437735E-1,-7.490068E-2,1.7501967E-1,-4.235172E-1,7.9943575E-2,-2.6792852E-2,-7.681681E-2,5.9403326E-2],"categories":[],"categories_nodes":[],"categories_segments":[],"categories_sizes":[],"default_left":[0,0,0,0,0,0,0,0,0],"id":16,"left_children":[1,-1,3,5,7,-1,-1,-1,-1],"loss_changes":[2.738865E0,0E0,3.056013E0,5.9233813E0,5.5705996E0,0E0,0E0,0E0,0E0],"parents":[2147483647,0,0,2,2,3,3,4,4],"right_children":[2,-1,4,6,8,-1,-1,-1,-1],"split_conditions":[4.59E0,1.0437735E-1,2.886319E-1,3.361841E4,7.849274E-1,7.9943575E-2,-2.6792852E-2,-7.681681E-2,5.9403326E-2],"split_indices":[1,0,10,3,10,0,0,0,0],"split_type":[0,0,0,0,0,0,0,0,0],"sum_hessian":[3.456299E1,1.33811E0,3.3224876E1,1.9641794E1,1.3583083E1,7.8172092E0,1.1824586E1,1.0329497E1,3.2535863E0],"tree_param":{"num_deleted":"0","num_feature":"13","num_nodes":"9","size_leaf_vector":"1"}},{"base_weights":[8.513088E-4,-9.6528195E-2,7.104887E-1,-1.0939895E-1,3.619271E-3,2.2767453E-2,8.873501E-2,3.3385806E-2,-4.0249098E-2],"categories":[],"categories_nodes":[],"categories_segments":[],"categories_sizes":[],"default_left":[0,0,0,0,0,0,0,0,0],"id":17,"left_children":[1,3,5,-1,7,-1,-1,-1,-1],"loss_changes":[2.4974566E0,3.1792903E0,1.703453E-1,0E0,4.1421695E0,0E0,0E0,0E0,0E0],"parents":[2147483647,0,0,1,1,2,2,4,4],"right_children":[2,4,6,-1,8,-1,-1,-1,-1],"split_conditions":[1.1705818E5,8.5632294E-2,1.636662E5,-1.0939895E-1,2.886319E-1,2.2767453E-2,8.873501E-2,3.3385806E-2,-4.0249098E-2],"split_indices":[3,10,3,0,10,0,0,0,0],"split_type":[0,0,0,0,0,0,0,0,0],"sum_hessian":[3.4148033E1,3.078725E1,3.360784E0,1.9036137E0,2.8883636E1,1.5142733E0,1.8465108E0,1.6027987E1,1.2855649E1],"tree_param":{"num_deleted":"0","num_feature":"13","num_nodes":"9","size_leaf_vector":"1"}},{"base_weights":[6.4422924E-4,1.00271665E-1,-6.851209E-2,-9.8055385E-2,1.7776886E-2,3.9391387E-2,-1.8706944E-2],"categories":[],"categories_nodes":[],"categories_segments":[],"categories_sizes":[],"default_left":[0,0,0,0,0,0,0],"id":18,"left_children":[1,-1,3,-1,5,-1,-1],"loss_changes":[2.480429E0,0E0,2.6531305E0,0E0,2.5068054E0,0E0,0E0],"parents":[2147483647,0,0,2,2,4,4],"right_children":[2,-1,4,-1,6,-1,-1],"split_conditions":[4.59E0,1.00271665E-1,1.07409395E-1,-9.8055385E-2,1.0465298E0,3.9391387E-2,-1.8706944E-2],"split_indices":[1,0,11,0,11,0,0],"split_type":[0,0,0,0,0,0,0],"sum_hessian":[3.380149E1,1.310669E0,3.249082E1,1.9125277E0,3.0578293E1,1.04560375E1,2.0122257E1],"tree_param":{"num_deleted":"0","num_feature":"13","num_nodes":"7","size_leaf_vector":"1"}},{"base_weights":[1.2023045E-3,-7.664301E-2,8.2658805E-2,8.6982474E-2,-6.8018246E-1,6.962554E-2,-2.0687748E-2,-3.9065117E-3,-1.1872788E-1],"categories":[],"categories_nodes":[],"categories_segments":[],"categories_sizes":[],"default_left":[0,0,0,0,0,0,0,0,0],"id":19,"left_children":[1,3,-1,5,7,-1,-1,-1,-1],"loss_changes":[2.2881627E0,3.27431E0,0E0,4.8885612E0,2.2480142E0,0E0,0E0,0E0,0E0],"parents":[2147483647,0,0,1,1,3,3,4,4],"right_children":[2,4,-1,6,8,-1,-1,-1,-1],"split_conditions":[3.1815942E6,3.8545046E8,8.2658805E-2,3.361841E4,4.009E1,6.962554E-2,-2.0687748E-2,-3.9065117E-3,-1.1872788E-1],"split_indices":[4,0,0,3,1,0,0,0,0],"split_type":[0,0,0,0,0,0,0,0,0],"sum_hessian":[3.3626102E1,3.1556982E1,2.0691183E0,2.5499655E1,6.057328E0,7.8514824E0,1.7648172E1,3.150816E0,2.906512E0],"tree_param":{"num_deleted":"0","num_feature":"13","num_nodes":"9","size_leaf_vector":"1"}},{"base_weights":[1.4257076E-3,9.608158E-2,-6.529789E-2,-1.4588183E-1,8.003862E-2,5.141339E-3,-9.375819E-2],"categories":[],"categories_nodes":[],"categories_segments":[],"categories_sizes":[],"default_left":[0,0,0,0,0,0,0],"id":20,"left_children":[1,-1,3,5,-1,-1,-1],"loss_changes":[2.25563E0,0E0,2.4164264E0,4.8909535E0,0E0,0E0,0E0],"parents":[2147483647,0,0,2,2,3,3],"right_children":[2,-1,4,6,-1,-1,-1],"split_conditions":[4.59E0,9.608158E-2,3.1815942E6,3.8545046E8,8.003862E-2,5.141339E-3,-9.375819E-2],"split_indices":[1,0,4,0,0,0,0],"split_type":[0,0,0,0,0,0,0],"sum_hessian":[3.3256443E1,1.2911799E0,3.1965265E1,3.0003786E1,1.9614788E0,2.4766838E1,5.236948E0],"tree_param":{"num_deleted":"0","num_feature":"13","num_nodes":"7","size_leaf_vector":"1"}},{"base_weights":[3.8498563E-3,-1.965566E-1,3.387389E-1,1.5361065E-1,-6.9434917E-1,-4.0315402E-1,6.012216E-1,-3.5801407E-2,7.975492E-2,-1.3434227E-1,-3.1950441E-3,4.62157E-2,-8.8843524E-2,9.8818794E-2,2.0991344E-2],"categories":[],"categories_nodes":[],"categories_segments":[],"categories_sizes":[],"default_left":[0,0,0,0,0,0,0,0,0,0,0,0,0,0,0],"id":21,"left_children":[1,3,5,7,9,11,13,-1,-1,-1,-1,-1,-1,-1,-1],"loss_changes":[2.3481114E0,3.924154E0,2.792303E0,4.790992E0,3.9233384E0,2.098954E0,1.3179543E0,0E0,0E0,0E0,0E0,0E0,0E0,0E0,0E0],"parents":[2147483647,0,0,1,1,2,2,3,3,4,4,5,5,6,6],"right_children":[2,4,6,8,10,12,14,-1,-1,-1,-1,-1,-1,-1,-1],"split_conditions":[7.329984E0,1.0465298E0,6.6824E4,1.2226652E6,6.882202E7,3.7603152E8,4.2100025E5,-3.5801407E-2,7.975492E-2,-1.3434227E-1,-3.1950441E-3,4.62157E-2,-8.8843524E-2,9.8818794E-2,2.0991344E-2],"split_indices":[11,11,2,0,0,0,4,0,0,0,0,0,0,0,0],"split_type":[0,0,0,0,0,0,0,0,0,0,0,0,0,0,0],"sum_hessian":[3.2994884E1,2.0900526E1,1.2094358E1,1.2675493E1,8.225034E0,3.0206718E0,9.073687E0,7.3108616E0,5.3646317E0,3.6350203E0,4.5900135E0,1.102479E0,1.9181929E0,3.7952268E0,5.27846E0],"tree_param":{"num_deleted":"0","num_feature":"13","num_nodes":"15","size_leaf_vector":"1"}},{"base_weights":[2.902255E-3,6.406001E-2,-9.658811E-2,-2.6648916E-2,9.08932E-2,-1.0287986E-1,7.972885E-3],"categories":[],"categories_nodes":[],"categories_segments":[],"categories_sizes":[],"default_left":[0,0,0,0,0,0,0],"id":22,"left_children":[1,3,-1,5,-1,-1,-1],"loss_changes":[2.0537705E0,2.519597E0,0E0,3.3202357E0,0E0,0E0,0E0],"parents":[2147483647,0,0,1,1,3,3],"right_children":[2,4,-1,6,-1,-1,-1],"split_conditions":[5E0,1.437091E5,-9.658811E-2,8.5632294E-2,9.08932E-2,-1.0287986E-1,7.972885E-3],"split_indices":[6,3,0,10,0,0,0],"split_type":[0,0,0,0,0,0,0],"sum_hessian":[3.261929E1,3.1560783E1,1.0585064E0,2.9375381E1,2.1854036E0,1.98684E0,2.738854E1],"tree_param":{"num_deleted":"0","num_feature":"13","num_nodes":"7","size_leaf_vector":"1"}},{"base_weights":[-3.600149E-4,9.025105E-2,-6.338859E-2,-9.2386924E-2,1.7696572E-2,3.2189395E-2,-2.27399E-2],"categories":[],"categories_nodes":[],"categories_segments":[],"categories_sizes":[],"default_left":[0,0,0,0,0,0,0],"id":23,"left_children":[1,-1,3,-1,5,-1,-1],"loss_changes":[1.9596494E0,0E0,2.2618833E0,0E0,2.3392525E0,0E0,0E0],"parents":[2147483647,0,0,2,2,4,4],"right_children":[2,-1,4,-1,6,-1,-1],"split_conditions":[4.59E0,9.025105E-2,1.07409395E-1,-9.2386924E-2,1.2E1,3.2189395E-2,-2.27399E-2],"split_indices":[1,0,11,0,5,0,0],"split_type":[0,0,0,0,0,0,0],"sum_hessian":[3.24309E1,1.2471197E0,3.1183783E1,1.7903774E0,2.9393406E1,1.2975581E1,1.6417824E1],"tree_param":{"num_deleted":"0","num_feature":"13","num_nodes":"7","size_leaf_vector":"1"}},{"base_weights":[-1.543525E-4,-1.8438382E-1,3.083284E-1,1.4302656E-1,-6.489578E-1,-3.723183E-1,5.472527E-1,-3.1948112E-2,7.278281E-2,-1.2552468E-1,-4.5163543E-3,4.481071E-2,-8.526545E-2,9.165441E-2,1.7878832E-2],"categories":[],"categories_nodes":[],"categories_segments":[],"categories_sizes":[],"default_left":[0,0,0,0,0,0,0,0,0,0,0,0,0,0,0],"id":24,"left_children":[1,3,5,7,9,11,13,-1,-1,-1,-1,-1,-1,-1,-1],"loss_changes":[1.9493634E0,3.3592758E0,2.2894769E0,3.861339E0,3.259352E0,1.9298148E0,1.1829684E0,0E0,0E0,0E0,0E0,0E0,0E0,0E0,0E0],"parents":[2147483647,0,0,1,1,2,2,3,3,4,4,5,5,6,6],"right_children":[2,4,6,8,10,12,14,-1,-1,-1,-1,-1,-1,-1,-1],"split_conditions":[7.329984E0,1.0465298E0,6.6824E4,1.2226652E6,6.882202E7,1.717E1,4.2100025E5,-3.1948112E-2,7.278281E-2,-1.2552468E-1,-4.5163543E-3,4.481071E-2,-8.526545E-2,9.165441E-2,1.7878832E-2],"split_indices":[11,11,2,0,0,1,4,0,0,0,0,0,0,0,0],"split_type":[0,0,0,0,0,0,0,0,0,0,0,0,0,0,0],"sum_hessian":[3.2300346E1,2.047483E1,1.1825518E1,1.2416432E1,8.058397E0,2.9274628E0,8.898055E0,7.1864824E0,5.22995E0,3.482538E0,4.5758595E0,1.1058102E0,1.8216527E0,3.7011395E0,5.196915E0],"tree_param":{"num_deleted":"0","num_feature":"13","num_nodes":"15","size_leaf_vector":"1"}},{"base_weights":[-8.809426E-4,5.7256997E-2,-9.12538E-2,-2.7471399E-2,8.650194E-2,-9.712341E-2,7.0269243E-3],"categories":[],"categories_nodes":[],"categories_segments":[],"categories_sizes":[],"default_left":[0,0,0,0,0,0,0],"id":25,"left_children":[1,3,-1,5,-1,-1,-1],"loss_changes":[1.7959006E0,2.2047334E0,0E0,2.8181014E0,0E0,0E0,0E0],"parents":[2147483647,0,0,1,1,3,3],"right_children":[2,4,-1,6,-1,-1,-1],"split_conditions":[5E0,1.437091E5,-9.12538E-2,8.5632294E-2,8.650194E-2,-9.712341E-2,7.0269243E-3],"split_indices":[6,3,0,10,0,0,0],"split_type":[0,0,0,0,0,0,0],"sum_hessian":[3.1897928E1,3.08667E1,1.0312281E0,2.8810661E1,2.056038E0,1.8650726E0,2.694559E1],"tree_param":{"num_deleted":"0","num_feature":"13","num_nodes":"7","size_leaf_vector":"1"}},{"base_weights":[-3.6872665E-3,8.512927E-2,-6.323332E-2,-8.788432E-2,1.2360719E-2,1.6093954E-2,-4.3671627E-2],"categories":[],"categories_nodes":[],"categories_segments":[],"categories_sizes":[],"default_left":[0,0,0,0,0,0,0],"id":26,"left_children":[1,-1,3,-1,5,-1,-1],"loss_changes":[1.7189924E0,0E0,1.9535424E0,0E0,2.0601232E0,0E0,0E0],"parents":[2147483647,0,0,2,2,4,4],"right_children":[2,-1,4,-1,6,-1,-1],"split_conditions":[4.59E0,8.512927E-2,1.07409395E-1,-8.788432E-2,3.8545046E8,1.6093954E-2,-4.3671627E-2],"split_indices":[1,0,11,0,0,0,0],"split_type":[0,0,0,0,0,0,0],"sum_hessian":[3.1707521E1,1.1987753E0,3.0508745E1,1.6865166E0,2.882223E1,2.213906E1,6.683171E0],"tree_param":{"num_deleted":"0","num_feature":"13","num_nodes":"7","size_leaf_vector":"1"}},{"base_weights":[-4.3176054E-3,-7.2346956E-2,7.56429E-2,6.957152E-2,-6.0307205E-1,4.9442034E-2,-2.9479949E-2,-1.9318474E-3,-1.08696714E-1],"categories":[],"categories_nodes":[],"categories_segments":[],"categories_sizes":[],"default_left":[0,0,0,0,0,0,0,0,0],"id":27,"left_children":[1,3,-1,5,7,-1,-1,-1,-1],"loss_changes":[1.740593E0,2.3628576E0,0E0,4.0482106E0,1.8446836E0,0E0,0E0,0E0,0E0],"parents":[2147483647,0,0,1,1,3,3,4,4],"right_children":[2,4,-1,6,8,-1,-1,-1,-1],"split_conditions":[3.1815942E6,3.8545046E8,7.56429E-2,3.851562E4,4.009E1,4.9442034E-2,-2.9479949E-2,-1.9318474E-3,-1.08696714E-1],"split_indices":[4,0,0,3,1,0,0,0,0],"split_type":[0,0,0,0,0,0,0,0,0],"sum_hessian":[3.15752E1,2.9814E1,1.7612007E0,2.4209242E1,5.604757E0,1.1012262E1,1.31969795E1,3.0115976E0,2.5931594E0],"tree_param":{"num_deleted":"0","num_feature":"13","num_nodes":"9","size_leaf_vector":"1"}},{"base_weights":[-4.4040284E-3,-1.78878E-1,2.8932858E-1,-1.9992556E-2,-1.0610371E-1,-3.4351996E-1,5.0843E-1,7.294746E-2,-2.1034362E-2,4.161569E-2,-8.071565E-2,8.652588E-2,1.545008E-2],"categories":[],"categories_nodes":[],"categories_segments":[],"categories_sizes":[],"default_left":[0,0,0,0,0,0,0,0,0,0,0,0,0],"id":28,"left_children":[1,3,5,7,-1,9,11,-1,-1,-1,-1,-1,-1],"loss_changes":[1.7040632E0,2.9004068E0,1.893521E0,2.8187115E0,0E0,1.6689824E0,1.0801837E0,0E0,0E0,0E0,0E0,0E0,0E0],"parents":[2147483647,0,0,1,1,2,2,3,3,5,5,6,6],"right_children":[2,4,6,8,-1,10,12,-1,-1,-1,-1,-1,-1],"split_conditions":[7.329984E0,1.670484E5,6.6824E4,1.055E1,-1.0610371E-1,3.7603152E8,4.2100025E5,7.294746E-2,-2.1034362E-2,4.161569E-2,-8.071565E-2,8.652588E-2,1.545008E-2],"split_indices":[11,4,2,1,0,0,4,0,0,0,0,0,0],"split_type":[0,0,0,0,0,0,0,0,0,0,0,0,0],"sum_hessian":[3.1240992E1,1.9844557E1,1.1396434E1,1.768244E1,2.1621165E0,2.784855E0,8.611579E0,3.0077603E0,1.467468E1,1.094274E0,1.6905807E0,3.5688095E0,5.0427694E0],"tree_param":{"num_deleted":"0","num_feature":"13","num_nodes":"13","size_leaf_vector":"1"}},{"base_weights":[-3.7548672E-3,-8.192376E-2,6.2110806E-1,-6.335616E-1,4.9159653E-2,2.0954937E-2,7.4315004E-2,-3.3643197E-3,-1.2836544E-1,-9.604342E-3,1.0064133E-1],"categories":[],"categories_nodes":[],"categories_segments":[],"categories_sizes":[],"default_left":[0,0,0,0,0,0,0,0,0,0,0],"id":29,"left_children":[1,3,5,7,9,-1,-1,-1,-1,-1,-1],"loss_changes":[1.6090227E0,2.1452432E0,2.827692E-2,2.1741452E0,3.5091448E0,0E0,0E0,0E0,0E0,0E0,0E0],"parents":[2147483647,0,0,1,1,2,2,3,3,4,4],"right_children":[2,4,6,8,10,-1,-1,-1,-1,-1,-1],"split_conditions":[1.1705818E5,1.1448281E-1,1.636662E5,8.759711E-2,3.9316E5,2.0954937E-2,7.4315004E-2,-3.3643197E-3,-1.2836544E-1,-9.604342E-3,1.0064133E-1],"split_indices":[3,10,3,10,2,0,0,0,0,0,0],"split_type":[0,0,0,0,0,0,0,0,0,0,0],"sum_hessian":[3.0899767E1,2.8236357E1,2.6634092E0,4.685426E0,2.355093E1,1.2305815E0,1.4328277E0,2.9837315E0,1.7016946E0,2.1230244E1,2.3206875E0],"tree_param":{"num_deleted":"0","num_feature":"13","num_nodes":"11","size_leaf_vector":"1"}},{"base_weights":[-1.5688873E-3,-5.8110076E-1,7.836325E-2,7.574677E-3,-1.0729311E-1,5.912172E-1,-1.1510952E-1,1.0199586E-1,-4.790342E-2,-6.281569E-2,1.3753446E-2],"categories":[],"categories_nodes":[],"categories_segments":[],"categories_sizes":[],"default_left":[0,0,0,0,0,0,0,0,0,0,0],"id":30,"left_children":[1,3,5,-1,-1,7,9,-1,-1,-1,-1],"loss_changes":[1.5179888E0,1.3643247E0,2.927162E0,0E0,0E0,4.185072E0,2.9067726E0,0E0,0E0,0E0,0E0],"parents":[2147483647,0,0,1,1,2,2,5,5,6,6],"right_children":[2,4,6,-1,-1,8,10,-1,-1,-1,-1],"split_conditions":[2.349464E4,1.992519E4,3.361841E4,7.574677E-3,-1.0729311E-1,1.55E2,5.558949E-1,1.0199586E-1,-4.790342E-2,-6.281569E-2,1.3753446E-2],"split_indices":[3,3,3,0,0,1,11,0,0,0,0],"split_type":[0,0,0,0,0,0,0,0,0,0,0],"sum_hessian":[3.0786476E1,2.9715953E0,2.781488E1,1.6345786E0,1.3370166E0,7.0557675E0,2.0759113E1,5.0712304E0,1.984537E0,6.359158E0,1.4399955E1],"tree_param":{"num_deleted":"0","num_feature":"13","num_nodes":"11","size_leaf_vector":"1"}},{"base_weights":[-4.154195E-3,8.12785E-2,-6.2306624E-2,-1.4490707E-1,5.9832092E-2,4.841707E-3,-1.0359096E-1],"categories":[],"categories_nodes":[],"categories_segments":[],"categories_sizes":[],"default_left":[0,0,0,0,0,0,0],"id":31,"left_children":[1,-1,3,5,-1,-1,-1],"loss_changes":[1.5461801E0,0E0,1.7410543E0,4.8306503E0,0E0,0E0,0E0],"parents":[2147483647,0,0,2,2,3,3],"right_children":[2,-1,4,6,-1,-1,-1],"split_conditions":[4.59E0,8.12785E-2,7.849274E-1,3.9069036E-1,5.9832092E-2,4.841707E-3,-1.0359096E-1],"split_indices":[1,0,10,10,0,0,0],"split_type":[0,0,0,0,0,0,0],"sum_hessian":[3.0480373E1,1.163164E0,2.931721E1,2.6752863E1,2.5643466E0,2.2760164E1,3.9926982E0],"tree_param":{"num_deleted":"0","num_feature":"13","num_nodes":"7","size_leaf_vector":"1"}},{"base_weights":[-2.729132E-3,9.846936E-2,-4.5370758E-1,4.6146822E-1,-1.8805239E-1,3.1516683E-1,-1.06205955E-1,-4.9757487E-3,8.692444E-2,8.012461E-3,-1.0865905E-1,8.030423E-2,-3.3592183E-2],"categories":[],"categories_nodes":[],"categories_segments":[],"categories_sizes":[],"default_left":[0,0,0,0,0,0,0,0,0,0,0,0,0],"id":32,"left_children":[1,3,5,7,9,11,-1,-1,-1,-1,-1,-1,-1],"loss_changes":[1.466881E0,2.8193538E0,3.0895357E0,2.51967E0,3.7964394E0,1.3410983E0,0E0,0E0,0E0,0E0,0E0,0E0,0E0],"parents":[2147483647,0,0,1,1,2,2,3,3,4,4,5,5],"right_children":[2,4,6,8,10,12,-1,-1,-1,-1,-1,-1,-1],"split_conditions":[9.775E1,1.5E1,9.7924E4,1E0,1.90338E5,2.6620203E-1,-1.06205955E-1,-4.9757487E-3,8.692444E-2,8.012461E-3,-1.0865905E-1,8.030423E-2,-3.3592183E-2],"split_indices":[1,5,2,5,2,10,0,0,0,0,0,0,0],"split_type":[0,0,0,0,0,0,0,0,0,0,0,0,0],"sum_hessian":[3.01625E1,2.527296E1,4.889539E0,1.0879265E1,1.4393697E1,2.3727002E0,2.5168383E0,5.216881E0,5.662384E0,1.1786681E1,2.607016E0,1.2229398E0,1.1497604E0],"tree_param":{"num_deleted":"0","num_feature":"13","num_nodes":"13","size_leaf_vector":"1"}},{"base_weights":[-5.065279E-3,-6.6899635E-2,7.073034E-2,6.573312E-2,-5.659307E-1,4.3571588E-2,-2.504596E-2,-4.2683105E-3,-1.0083894E-1],"categories":[],"categories_nodes":[],"categories_segments":[],"categories_sizes":[],"default_left":[0,0,0,0,0,0,0,0,0],"id":33,"left_children":[1,3,-1,5,7,-1,-1,-1,-1],"loss_changes":[1.4110813E0,1.9831953E0,0E0,2.931245E0,1.4103005E0,0E0,0E0,0E0,0E0],"parents":[2147483647,0,0,1,1,3,3,4,4],"right_children":[2,4,-1,6,8,-1,-1,-1,-1],"split_conditions":[3.1815942E6,3.8545046E8,7.073034E-2,3.851562E4,4.009E1,4.3571588E-2,-2.504596E-2,-4.2683105E-3,-1.0083894E-1],"split_indices":[4,0,0,3,1,0,0,0,0],"split_type":[0,0,0,0,0,0,0,0,0],"sum_hessian":[2.9960236E1,2.8401081E1,1.5591553E0,2.3123566E1,5.277515E0,1.0481255E1,1.2642311E1,2.9203744E0,2.3571408E0],"tree_param":{"num_deleted":"0","num_feature":"13","num_nodes":"9","size_leaf_vector":"1"}},{"base_weights":[-5.1502776E-3,-5.6000185E-1,7.33982E-2,6.832683E-3,-1.0307957E-1,5.5933994E-1,-1.0452288E-1,9.551119E-2,-4.2164136E-2,-5.781548E-2,1.2794006E-2],"categories":[],"categories_nodes":[],"categories_segments":[],"categories_sizes":[],"default_left":[0,0,0,0,0,0,0,0,0,0,0],"id":34,"left_children":[1,3,5,-1,-1,7,9,-1,-1,-1,-1],"loss_changes":[1.3768684E0,1.2290376E0,2.4561756E0,0E0,0E0,3.3494694E0,2.4017792E0,0E0,0E0,0E0,0E0],"parents":[2147483647,0,0,1,1,2,2,5,5,6,6],"right_children":[2,4,6,-1,-1,8,10,-1,-1,-1,-1],"split_conditions":[2.349464E4,1.992519E4,3.361841E4,6.832683E-3,-1.0307957E-1,1.55E2,5.558949E-1,9.551119E-2,-4.2164136E-2,-5.781548E-2,1.2794006E-2],"split_indices":[3,3,3,0,0,1,11,0,0,0,0],"split_type":[0,0,0,0,0,0,0,0,0,0,0],"sum_hessian":[2.9648949E1,2.9166815E0,2.6732265E1,1.6154912E0,1.3011904E0,6.5899377E0,2.0142328E1,4.7143345E0,1.8756034E0,6.1417427E0,1.4000586E1],"tree_param":{"num_deleted":"0","num_feature":"13","num_nodes":"11","size_leaf_vector":"1"}},{"base_weights":[-7.323047E-3,7.772301E-2,-6.413856E-2,-8.785224E-2,9.8354416E-5,7.5468875E-2,-9.651533E-3],"categories":[],"categories_nodes":[],"categories_segments":[],"categories_sizes":[],"default_left":[0,0,0,0,0,0,0],"id":35,"left_children":[1,-1,3,-1,5,-1,-1],"loss_changes":[1.4025724E0,0E0,1.5287778E0,0E0,2.1203551E0,0E0,0E0],"parents":[2147483647,0,0,2,2,4,4],"right_children":[2,-1,4,-1,6,-1,-1],"split_conditions":[4.59E0,7.772301E-2,2.0680262E5,-8.785224E-2,3.3479156E5,7.5468875E-2,-9.651533E-3],"split_indices":[1,0,0,0,0,0,0],"split_type":[0,0,0,0,0,0,0],"sum_hessian":[2.9347242E1,1.1255044E0,2.8221737E1,1.1365448E0,2.7085192E1,2.301123E0,2.478407E1],"tree_param":{"num_deleted":"0","num_feature":"13","num_nodes":"7","size_leaf_vector":"1"}},{"base_weights":[-4.7401013E-3,-6.396979E-2,6.855587E-2,1.7776226E-1,-3.2089794E-1,3.5014093E-2,-8.491795E-2,3.0268649E-2,-7.407004E-2],"categories":[],"categories_nodes":[],"categories_segments":[],"categories_sizes":[],"default_left":[0,0,0,0,0,0,0,0,0],"id":36,"left_children":[1,3,-1,5,7,-1,-1,-1,-1],"loss_changes":[1.2811795E0,1.8448699E0,0E0,3.0367727E0,3.9705167E0,0E0,0E0,0E0,0E0],"parents":[2147483647,0,0,1,1,3,3,4,4],"right_children":[2,4,-1,6,8,-1,-1,-1,-1],"split_conditions":[3.1815942E6,1.5E1,6.855587E-2,3.8545046E8,1.265E1,3.5014093E-2,-8.491795E-2,3.0268649E-2,-7.407004E-2],"split_indices":[4,5,0,0,1,0,0,0,0],"split_type":[0,0,0,0,0,0,0,0,0],"sum_hessian":[2.9262657E1,2.7785877E1,1.4767808E0,1.4475067E1,1.331081E1,1.2958881E1,1.5161853E0,5.467796E0,7.843014E0],"tree_param":{"num_deleted":"0","num_feature":"13","num_nodes":"9","size_leaf_vector":"1"}},{"base_weights":[-5.2756974E-3,8.8261485E-2,-4.311559E-1,4.1608456E-1,-1.7490004E-1,2.7304357E-1,-9.796514E-2,-2.1368371E-2,7.0769295E-2,6.9100643E-3,-9.756964E-2,7.356404E-2,-3.3495046E-2],"categories":[],"categories_nodes":[],"categories_segments":[],"categories_sizes":[],"default_left":[0,0,0,0,0,0,0,0,0,0,0,0,0],"id":37,"left_children":[1,3,5,7,9,11,-1,-1,-1,-1,-1,-1,-1],"loss_changes":[1.2303869E0,2.2615678E0,2.415032E0,2.2803423E0,2.9549062E0,1.1510595E0,0E0,0E0,0E0,0E0,0E0,0E0,0E0],"parents":[2147483647,0,0,1,1,2,2,3,3,4,4,5,5],"right_children":[2,4,6,8,10,12,-1,-1,-1,-1,-1,-1,-1],"split_conditions":[9.775E1,1.5E1,9.7924E4,3.492295E4,1.90338E5,2.6620203E-1,-9.796514E-2,-2.1368371E-2,7.0769295E-2,6.9100643E-3,-9.756964E-2,7.356404E-2,-3.3495046E-2],"split_indices":[1,5,2,4,2,10,0,0,0,0,0,0,0],"split_type":[0,0,0,0,0,0,0,0,0,0,0,0,0],"sum_hessian":[2.8931303E1,2.437132E1,4.5599823E0,1.0593628E1,1.3777693E1,2.2164867E0,2.3434956E0,3.437373E0,7.1562552E0,1.126039E1,2.5173035E0,1.1395243E0,1.0769624E0],"tree_param":{"num_deleted":"0","num_feature":"13","num_nodes":"13","size_leaf_vector":"1"}},{"base_weights":[-8.189521E-3,-5.4683864E-1,6.953498E-2,5.995508E-3,-9.963243E-2,5.447736E-1,-9.859818E-2,9.078433E-2,-3.647084E-2,-2.204502E-2,6.473273E-2],"categories":[],"categories_nodes":[],"categories_segments":[],"categories_sizes":[],"default_left":[0,0,0,0,0,0,0,0,0,0,0],"id":38,"left_children":[1,3,5,-1,-1,7,9,-1,-1,-1,-1],"loss_changes":[1.2802385E0,1.1109815E0,2.196459E0,0E0,0E0,2.6957965E0,2.0201259E0,0E0,0E0,0E0,0E0],"parents":[2147483647,0,0,1,1,2,2,5,5,6,6],"right_children":[2,4,6,-1,-1,8,10,-1,-1,-1,-1],"split_conditions":[2.349464E4,1.992519E4,3.361841E4,5.995508E-3,-9.963243E-2,1.55E2,7.849274E-1,9.078433E-2,-3.647084E-2,-2.204502E-2,6.473273E-2],"split_indices":[3,3,3,0,0,1,10,0,0,0,0],"split_type":[0,0,0,0,0,0,0,0,0,0,0],"sum_hessian":[2.8671026E1,2.8543193E0,2.5816708E1,1.5833936E0,1.2709256E0,6.1612964E0,1.965541E1,4.4047146E0,1.7565819E0,1.7500969E1,2.1544418E0],"tree_param":{"num_deleted":"0","num_feature":"13","num_nodes":"11","size_leaf_vector":"1"}},{"base_weights":[-7.0176246E-3,7.459568E-2,-6.2493075E-2,8.601438E-2,-3.9828777E-1,2.5394315E-2,-5.1517207E-2,-1.0383399E-1,2.1979911E-2],"categories":[],"categories_nodes":[],"categories_segments":[],"categories_sizes":[],"default_left":[0,0,0,0,0,0,0,0,0],"id":39,"left_children":[1,-1,3,5,7,-1,-1,-1,-1],"loss_changes":[1.2721965E0,0E0,1.443001E0,2.1912813E0,3.725426E0,0E0,0E0,0E0,0E0],"parents":[2147483647,0,0,2,2,3,3,4,4],"right_children":[2,-1,4,6,8,-1,-1,-1,-1],"split_conditions":[4.59E0,7.459568E-2,3.4408623E-1,9.775E1,1.7E1,2.5394315E-2,-5.1517207E-2,-1.0383399E-1,2.1979911E-2],"split_indices":[1,0,10,1,5,0,0,0,0],"split_type":[0,0,0,0,0,0,0,0,0],"sum_hessian":[2.8340021E1,1.0905983E0,2.7249422E1,1.9409353E1,7.8400683E0,1.5622995E1,3.7863579E0,3.517569E0,4.3224993E0],"tree_param":{"num_deleted":"0","num_feature":"13","num_nodes":"9","size_leaf_vector":"1"}},{"base_weights":[-7.845622E-3,7.1955375E-2,-6.105811E-2,-8.404603E-2,2.6536155E-3,7.2730474E-2,-9.343957E-3],"categories":[],"categories_nodes":[],"categories_segments":[],"categories_sizes":[],"default_left":[0,0,0,0,0,0,0],"id":40,"left_children":[1,-1,3,-1,5,-1,-1],"loss_changes":[1.1669695E0,0E0,1.390538E0,0E0,1.9370799E0,0E0,0E0],"parents":[2147483647,0,0,2,2,4,4],"right_children":[2,-1,4,-1,6,-1,-1],"split_conditions":[4.59E0,7.1955375E-2,2.0680262E5,-8.404603E-2,3.3479156E5,7.2730474E-2,-9.343957E-3],"split_indices":[1,0,0,0,0,0,0],"split_type":[0,0,0,0,0,0,0],"sum_hessian":[2.8013943E1,1.0560312E0,2.6957912E1,1.1158477E0,2.5842064E1,2.2565308E0,2.3585533E1],"tree_param":{"num_deleted":"0","num_feature":"13","num_nodes":"7","size_leaf_vector":"1"}},{"base_weights":[-5.2804663E-3,-6.183877E-2,6.5581255E-2,1.6175397E-1,-3.007306E-1,3.1324454E-2,-7.700538E-2,2.6926635E-2,-6.880978E-2],"categories":[],"categories_nodes":[],"categories_segments":[],"categories_sizes":[],"default_left":[0,0,0,0,0,0,0,0,0],"id":41,"left_children":[1,3,-1,5,7,-1,-1,-1,-1],"loss_changes":[1.1221204E0,1.5207747E0,0E0,2.3425753E0,3.2045083E0,0E0,0E0,0E0,0E0],"parents":[2147483647,0,0,1,1,3,3,4,4],"right_children":[2,4,-1,6,8,-1,-1,-1,-1],"split_conditions":[3.1815942E6,1.5E1,6.5581255E-2,3.8545046E8,1.265E1,3.1324454E-2,-7.700538E-2,2.6926635E-2,-6.880978E-2],"split_indices":[4,5,0,0,1,0,0,0,0],"split_type":[0,0,0,0,0,0,0,0,0],"sum_hessian":[2.7926378E1,2.6560514E1,1.3658645E0,1.3886361E1,1.2674153E1,1.2515465E1,1.370896E0,5.251557E0,7.4225965E0],"tree_param":{"num_deleted":"0","num_feature":"13","num_nodes":"9","size_leaf_vector":"1"}},{"base_weights":[-5.6865294E-3,-1.9861409E-1,1.8391757E-1,2.2640924E-1,-9.6232486E-1,9.407502E-2,-2.640363E-2,4.5050945E-2,-6.908112E-2,-1.2464257E-1,-2.3291986E-2,1.882988E-2,-8.191998E-2],"categories":[],"categories_nodes":[],"categories_segments":[],"categories_sizes":[],"default_left":[0,0,0,0,0,0,0,0,0,0,0,0,0],"id":42,"left_children":[1,3,5,7,9,-1,11,-1,-1,-1,-1,-1,-1],"loss_changes":[1.0831765E0,4.977361E0,2.4045246E0,2.4139414E0,8.3554554E-1,0E0,2.3111353E0,0E0,0E0,0E0,0E0,0E0,0E0],"parents":[2147483647,0,0,1,1,2,2,3,3,4,4,6,6],"right_children":[2,4,6,8,10,-1,12,-1,-1,-1,-1,-1,-1],"split_conditions":[6.882202E7,2.589E1,2.9651274E8,3.8721803E-1,9.706E1,9.407502E-2,1.49451E5,4.5050945E-2,-6.908112E-2,-1.2464257E-1,-2.3291986E-2,1.882988E-2,-8.191998E-2],"split_indices":[0,1,0,10,1,0,2,0,0,0,0,0,0],"split_type":[0,0,0,0,0,0,0,0,0,0,0,0,0],"sum_hessian":[2.7612682E1,1.3662837E1,1.3949844E1,9.229783E0,4.4330544E0,2.2783546E0,1.167149E1,7.8264217E0,1.4033613E0,2.6802716E0,1.7527828E0,9.784243E0,1.887248E0],"tree_param":{"num_deleted":"0","num_feature":"13","num_nodes":"13","size_leaf_vector":"1"}},{"base_weights":[-1.03063295E-2,-5.081213E-1,6.2300626E-2,7.7618966E-3,-9.3060896E-2,5.1957524E-1,-9.6585296E-2,8.5743636E-2,-3.0643081E-2,-5.188935E-2,1.1218486E-2],"categories":[],"categories_nodes":[],"categories_segments":[],"categories_sizes":[],"default_left":[0,0,0,0,0,0,0,0,0,0,0],"id":43,"left_children":[1,3,5,-1,-1,7,9,-1,-1,-1,-1],"loss_changes":[1.0548596E0,9.909572E-1,1.9098428E0,0E0,0E0,2.1484675E0,1.8073153E0,0E0,0E0,0E0,0E0],"parents":[2147483647,0,0,1,1,2,2,5,5,6,6],"right_children":[2,4,6,-1,-1,8,10,-1,-1,-1,-1],"split_conditions":[2.349464E4,1.992519E4,3.361841E4,7.7618966E-3,-9.3060896E-2,1.55E2,5.558949E-1,8.5743636E-2,-3.0643081E-2,-5.188935E-2,1.1218486E-2],"split_indices":[3,3,3,0,0,1,11,0,0,0,0],"split_type":[0,0,0,0,0,0,0,0,0,0,0],"sum_hessian":[2.730843E1,2.712497E0,2.4595934E1,1.4786985E0,1.2337985E0,5.757036E0,1.8838898E1,4.05881E0,1.6982259E0,5.7407713E0,1.3098126E1],"tree_param":{"num_deleted":"0","num_feature":"13","num_nodes":"11","size_leaf_vector":"1"}},{"base_weights":[-1.1692083E-2,-7.810445E-2,5.304088E-1,-5.732228E-1,4.8858833E-2,1.44447135E-2,6.452039E-2,-4.6449318E-3,-1.1019623E-1,-8.166495E-3,8.340852E-2],"categories":[],"categories_nodes":[],"categories_segments":[],"categories_sizes":[],"default_left":[0,0,0,0,0,0,0,0,0,0,0],"id":44,"left_children":[1,3,5,7,9,-1,-1,-1,-1,-1,-1],"loss_changes":[1.0506951E0,1.6527094E0,4.804659E-2,1.4398984E0,2.2708585E0,0E0,0E0,0E0,0E0,0E0,0E0],"parents":[2147483647,0,0,1,1,2,2,3,3,4,4],"right_children":[2,4,6,8,10,-1,-1,-1,-1,-1,-1],"split_conditions":[1.1705818E5,1.1448281E-1,1.636662E5,8.759711E-2,3.9316E5,1.44447135E-2,6.452039E-2,-4.6449318E-3,-1.1019623E-1,-8.166495E-3,8.340852E-2],"split_indices":[3,10,3,10,2,0,0,0,0,0,0],"split_type":[0,0,0,0,0,0,0,0,0,0,0],"sum_hessian":[2.7033499E1,2.4845604E1,2.1878936E0,4.3534803E0,2.0492125E1,1.0192608E0,1.168633E0,2.7257323E0,1.6277478E0,1.8339628E1,2.1524956E0],"tree_param":{"num_deleted":"0","num_feature":"13","num_nodes":"11","size_leaf_vector":"1"}},{"base_weights":[-9.100097E-3,6.793251E-2,-5.99769E-2,-7.985978E-2,1.7213242E-3,7.1996264E-2,-9.623588E-3],"categories":[],"categories_nodes":[],"categories_segments":[],"categories_sizes":[],"default_left":[0,0,0,0,0,0,0],"id":45,"left_children":[1,-1,3,-1,5,-1,-1],"loss_changes":[1.0177282E0,0E0,1.2269452E0,0E0,1.8857532E0,0E0,0E0],"parents":[2147483647,0,0,2,2,4,4],"right_children":[2,-1,4,-1,6,-1,-1],"split_conditions":[4.59E0,6.793251E-2,2.0680262E5,-7.985978E-2,3.3479156E5,7.1996264E-2,-9.623588E-3],"split_indices":[1,0,0,0,0,0,0],"split_type":[0,0,0,0,0,0,0],"sum_hessian":[2.6894016E1,1.0007187E0,2.5893297E1,1.0754098E0,2.4817888E1,2.216477E0,2.260141E1],"tree_param":{"num_deleted":"0","num_feature":"13","num_nodes":"7","size_leaf_vector":"1"}},{"base_weights":[-6.3732094E-3,-6.0358167E-2,6.288624E-2,5.2236386E-2,-4.92471E-1,-1.7971143E-2,4.160357E-2,-6.759301E-3,-8.711421E-2],"categories":[],"categories_nodes":[],"categories_segments":[],"categories_sizes":[],"default_left":[0,0,0,0,0,0,0,0,0],"id":46,"left_children":[1,3,-1,5,7,-1,-1,-1,-1],"loss_changes":[9.91538E-1,1.3170451E0,0E0,1.9277213E0,8.39219E-1,0E0,0E0,0E0,0E0],"parents":[2147483647,0,0,1,1,3,3,4,4],"right_children":[2,4,-1,6,8,-1,-1,-1,-1],"split_conditions":[3.1815942E6,3.8545046E8,6.288624E-2,6.882202E7,4.009E1,-1.7971143E-2,4.160357E-2,-6.759301E-3,-8.711421E-2],"split_indices":[4,0,0,0,1,0,0,0,0],"split_type":[0,0,0,0,0,0,0,0,0],"sum_hessian":[2.6806738E1,2.554113E1,1.2656082E0,2.0959007E1,4.582122E0,1.3107843E1,7.8511634E0,2.7146833E0,1.8674386E0],"tree_param":{"num_deleted":"0","num_feature":"13","num_nodes":"9","size_leaf_vector":"1"}},{"base_weights":[-6.085635E-3,-9.455443E-2,3.8495028E-1,-8.313546E-3,-9.443505E-2,-3.0719653E-2,6.301317E-1,1.7698385E-2,-3.443034E-2,9.162826E-2,5.402782E-3],"categories":[],"categories_nodes":[],"categories_segments":[],"categories_sizes":[],"default_left":[0,0,0,0,0,0,0,0,0,0,0],"id":47,"left_children":[1,3,5,7,-1,-1,9,-1,-1,-1,-1],"loss_changes":[9.916675E-1,1.7013134E0,1.0916113E0,1.4419224E0,0E0,0E0,6.4870894E-1,0E0,0E0,0E0,0E0],"parents":[2147483647,0,0,1,1,2,2,3,3,6,6],"right_children":[2,4,6,8,-1,-1,10,-1,-1,-1,-1],"split_conditions":[8.616515E4,6.4003E5,1.5892166E6,3.4408623E-1,-9.443505E-2,-3.0719653E-2,3.7434662E6,1.7698385E-2,-3.443034E-2,9.162826E-2,5.402782E-3],"split_indices":[3,2,0,10,0,0,0,0,0,0,0],"split_type":[0,0,0,0,0,0,0,0,0,0,0],"sum_hessian":[2.6613333E1,2.232147E1,4.2918615E0,2.118165E1,1.1398201E0,1.0564811E0,3.2353804E0,1.395742E1,7.2242293E0,1.7671535E0,1.468227E0],"tree_param":{"num_deleted":"0","num_feature":"13","num_nodes":"11","size_leaf_vector":"1"}},{"base_weights":[-7.1052485E-3,-7.1072444E-2,5.2569803E-2,3.511017E-2,-7.934499E-2,6.369507E-2,-7.880902E-3],"categories":[],"categories_nodes":[],"categories_segments":[],"categories_sizes":[],"default_left":[0,0,0,0,0,0,0],"id":48,"left_children":[1,3,-1,5,-1,-1,-1],"loss_changes":[9.722074E-1,1.9738457E0,0E0,1.6323485E0,0E0,0E0,0E0],"parents":[2147483647,0,0,1,1,3,3],"right_children":[2,4,-1,6,-1,-1,-1],"split_conditions":[7.849274E-1,4.037855E-1,5.2569803E-2,1.7200272E-1,-7.934499E-2,6.369507E-2,-7.880902E-3],"split_indices":[10,10,0,11,0,0,0],"split_type":[0,0,0,0,0,0,0],"sum_hessian":[2.6429337E1,2.437012E1,2.0592167E0,2.2076483E1,2.2936368E0,2.7829218E0,1.9293562E1],"tree_param":{"num_deleted":"0","num_feature":"13","num_nodes":"7","size_leaf_vector":"1"}},{"base_weights":[-5.503067E-3,-4.660606E-1,6.2046915E-2,1.0001104E-2,-8.8046715E-2,5.058022E-1,-9.085597E-2,8.22246E-2,-2.6817767E-2,-1.9675763E-2,5.7784434E-2],"categories":[],"categories_nodes":[],"categories_segments":[],"categories_sizes":[],"default_left":[0,0,0,0,0,0,0,0,0,0,0],"id":49,"left_children":[1,3,5,-1,-1,7,9,-1,-1,-1,-1],"loss_changes":[8.76354E-1,9.3295E-1,1.717663E0,0E0,0E0,1.8041874E0,1.4713658E0,0E0,0E0,0E0,0E0],"parents":[2147483647,0,0,1,1,2,2,5,5,6,6],"right_children":[2,4,6,-1,-1,8,10,-1,-1,-1,-1],"split_conditions":[2.349464E4,1.992519E4,3.361841E4,1.0001104E-2,-8.8046715E-2,1.55E2,7.849274E-1,8.22246E-2,-2.6817767E-2,-1.9675763E-2,5.7784434E-2],"split_indices":[3,3,3,0,0,1,10,0,0,0,0],"split_type":[0,0,0,0,0,0,0,0,0,0,0],"sum_hessian":[2.6239426E1,2.6016715E0,2.3637754E1,1.4202714E0,1.1814001E0,5.46608E0,1.8171675E1,3.835546E0,1.6305344E0,1.629656E1,1.8751153E0],"tree_param":{"num_deleted":"0","num_feature":"13","num_nodes":"11","size_leaf_vector":"1"}},{"base_weights":[-4.1714027E-3,-8.903842E-2,3.7035835E-1,-6.693112E-3,-8.911993E-2,-2.924653E-2,6.0817105E-1,-7.746536E-2,7.0027704E-3,8.907369E-2,3.6950067E-3],"categories":[],"categories_nodes":[],"categories_segments":[],"categories_sizes":[],"default_left":[0,0,0,0,0,0,0,0,0,0,0],"id":50,"left_children":[1,3,5,7,-1,-1,9,-1,-1,-1,-1],"loss_changes":[8.8967234E-1,1.498731E0,9.9326783E-1,1.3308092E0,0E0,0E0,6.339836E-1,0E0,0E0,0E0,0E0],"parents":[2147483647,0,0,1,1,2,2,3,3,6,6],"right_children":[2,4,6,8,-1,-1,10,-1,-1,-1,-1],"split_conditions":[8.616515E4,6.4003E5,1.5892166E6,2.0680262E5,-8.911993E-2,-2.924653E-2,3.7434662E6,-7.746536E-2,7.0027704E-3,8.907369E-2,3.6950067E-3],"split_indices":[3,2,0,0,0,0,0,0,0,0,0],"split_type":[0,0,0,0,0,0,0,0,0,0,0],"sum_hessian":[2.5952658E1,2.1779722E1,4.172936E0,2.0666553E1,1.1131678E0,1.04118E0,3.1317558E0,1.0508366E0,1.9615717E1,1.7210488E0,1.4107071E0],"tree_param":{"num_deleted":"0","num_feature":"13","num_nodes":"11","size_leaf_vector":"1"}},{"base_weights":[-7.3213065E-3,6.2376123E-2,-5.721804E-2,8.967422E-3,-6.3990034E-2,-1.5544735E-2,3.432494E-2],"categories":[],"categories_nodes":[],"categories_segments":[],"categories_sizes":[],"default_left":[0,0,0,0,0,0,0],"id":51,"left_children":[1,-1,3,5,-1,-1,-1],"loss_changes":[8.806208E-1,0E0,1.0000426E0,1.3800484E0,0E0,0E0,0E0],"parents":[2147483647,0,0,2,2,3,3],"right_children":[2,-1,4,6,-1,-1,-1],"split_conditions":[4.72E0,6.2376123E-2,3.9667837E8,7.329984E0,-6.3990034E-2,-1.5544735E-2,3.432494E-2],"split_indices":[1,0,0,11,0,0,0],"split_type":[0,0,0,0,0,0,0],"sum_hessian":[2.5832592E1,1.0501018E0,2.4782492E1,2.3138819E1,1.6436721E0,1.5868812E1,7.270007E0],"tree_param":{"num_deleted":"0","num_feature":"13","num_nodes":"7","size_leaf_vector":"1"}},{"base_weights":[-5.9489007E-3,-4.509292E-1,6.555645E-2,2.310446E-2,-7.9333045E-2,-2.5820084E-2,5.444207E-1,8.365575E-3,-5.5931676E-2,7.392197E-2,-2.1776312E-4],"categories":[],"categories_nodes":[],"categories_segments":[],"categories_sizes":[],"default_left":[0,0,0,0,0,0,0,0,0,0,0],"id":52,"left_children":[1,3,5,-1,-1,7,9,-1,-1,-1,-1],"loss_changes":[8.804135E-1,1.0774196E0,1.060362E0,0E0,0E0,1.2753271E0,4.1441417E-1,0E0,0E0,0E0,0E0],"parents":[2147483647,0,0,1,1,2,2,5,5,6,6],"right_children":[2,4,6,-1,-1,8,10,-1,-1,-1,-1],"split_conditions":[6.295E4,1.458E1,9.713718E0,2.310446E-2,-7.9333045E-2,3.8545046E8,7.268E1,8.365575E-3,-5.5931676E-2,7.392197E-2,-2.1776312E-4],"split_indices":[2,1,11,0,0,0,1,0,0,0,0],"split_type":[0,0,0,0,0,0,0,0,0,0,0],"sum_hessian":[2.5740824E1,2.829087E0,2.2911737E1,1.0543399E0,1.774747E0,2.0034794E1,2.8769438E0,1.7323193E1,2.7116008E0,1.8612307E0,1.0157132E0],"tree_param":{"num_deleted":"0","num_feature":"13","num_nodes":"11","size_leaf_vector":"1"}},{"base_weights":[-6.624804E-3,6.1180998E-2,-5.5693682E-2,1.5043984E-1,-2.3254696E-1,-7.700962E-2,3.137116E-2,-3.7766032E-2,4.548405E-2],"categories":[],"categories_nodes":[],"categories_segments":[],"categories_sizes":[],"default_left":[0,0,0,0,0,0,0,0,0],"id":53,"left_children":[1,-1,3,5,7,-1,-1,-1,-1],"loss_changes":[8.3942646E-1,0E0,9.647695E-1,2.1029654E0,1.5802448E0,0E0,0E0,0E0,0E0],"parents":[2147483647,0,0,2,2,3,3,4,4],"right_children":[2,-1,4,6,8,-1,-1,-1,-1],"split_conditions":[4.72E0,6.1180998E-2,1.2E1,8.5632294E-2,7.849274E-1,-7.700962E-2,3.137116E-2,-3.7766032E-2,4.548405E-2],"split_indices":[1,0,5,10,10,0,0,0,0],"split_type":[0,0,0,0,0,0,0,0,0],"sum_hessian":[2.553909E1,1.0343515E0,2.4504738E1,1.1384614E1,1.3120125E1,1.155151E0,1.0229463E1,1.1205197E1,1.9149266E0],"tree_param":{"num_deleted":"0","num_feature":"13","num_nodes":"9","size_leaf_vector":"1"}},{"base_weights":[-5.1348708E-3,7.6268084E-2,-3.7702304E-1,3.4260586E-1,-1.459196E-1,2.1854559E-2,-8.497959E-2,-1.362248E-2,7.198456E-2,2.9726336E-2,-4.7493905E-2],"categories":[],"categories_nodes":[],"categories_segments":[],"categories_sizes":[],"default_left":[0,0,0,0,0,0,0,0,0,0,0],"id":54,"left_children":[1,3,5,7,9,-1,-1,-1,-1,-1,-1],"loss_changes":[8.2655287E-1,1.378678E0,1.5656568E0,1.9966117E0,2.0283663E0,0E0,0E0,0E0,0E0,0E0,0E0],"parents":[2147483647,0,0,1,1,2,2,3,3,4,4],"right_children":[2,4,6,8,10,-1,-1,-1,-1,-1,-1],"split_conditions":[9.775E1,1.5E1,9.7924E4,1E0,1.265E1,2.1854559E-2,-8.497959E-2,-1.362248E-2,7.198456E-2,2.9726336E-2,-4.7493905E-2],"split_indices":[1,5,2,5,1,0,0,0,0,0,0],"split_type":[0,0,0,0,0,0,0,0,0,0,0],"sum_hessian":[2.535363E1,2.1452736E1,3.9008932E0,9.5104885E0,1.1942248E1,1.9642253E0,1.9366679E0,4.47247E0,5.0380187E0,5.1294684E0,6.8127794E0],"tree_param":{"num_deleted":"0","num_feature":"13","num_nodes":"11","size_leaf_vector":"1"}},{"base_weights":[-5.6028506E-3,-4.2904818E-1,6.0808696E-2,2.0358479E-2,-7.5638525E-2,3.723847E-1,-8.382462E-2,7.507377E-2,-2.7243812E-2,-2.4337627E-2,3.4927722E-2],"categories":[],"categories_nodes":[],"categories_segments":[],"categories_sizes":[],"default_left":[0,0,0,0,0,0,0,0,0,0,0],"id":55,"left_children":[1,3,5,-1,-1,7,9,-1,-1,-1,-1],"loss_changes":[7.6021135E-1,9.126013E-1,1.0876069E0,0E0,0E0,2.0625105E0,1.2477387E0,0E0,0E0,0E0,0E0],"parents":[2147483647,0,0,1,1,2,2,5,5,6,6],"right_children":[2,4,6,-1,-1,8,10,-1,-1,-1,-1],"split_conditions":[6.295E4,1.458E1,3.361841E4,2.0358479E-2,-7.5638525E-2,8.055E1,8.616515E4,7.507377E-2,-2.7243812E-2,-2.4337627E-2,3.4927722E-2],"split_indices":[2,1,3,0,0,1,3,0,0,0,0],"split_type":[0,0,0,0,0,0,0,0,0,0,0],"sum_hessian":[2.51052E1,2.6633055E0,2.2441895E1,1.0370646E0,1.626241E0,6.615591E0,1.58263035E1,4.065742E0,2.5498488E0,1.1885742E1,3.9405613E0],"tree_param":{"num_deleted":"0","num_feature":"13","num_nodes":"11","size_leaf_vector":"1"}},{"base_weights":[-4.8734E-3,4.4163704E-1,-6.8204366E-2,-7.5118737E-3,8.152436E-2,6.537717E-2,-4.614782E-1,2.0171719E-2,-4.2586904E-2,-9.6282795E-2,4.3363657E-2],"categories":[],"categories_nodes":[],"categories_segments":[],"categories_sizes":[],"default_left":[0,0,0,0,0,0,0,0,0,0,0],"id":56,"left_children":[1,3,5,-1,-1,7,9,-1,-1,-1,-1],"loss_changes":[7.5982106E-1,7.0590544E-1,1.2629051E0,0E0,0E0,1.3177228E0,3.1431518E0,0E0,0E0,0E0,0E0],"parents":[2147483647,0,0,1,1,2,2,5,5,6,6],"right_children":[2,4,6,-1,-1,8,10,-1,-1,-1,-1],"split_conditions":[5.44E0,1.46575E5,3.4408623E-1,-7.5118737E-3,8.152436E-2,9.775E1,7.849274E-1,2.0171719E-2,-4.2586904E-2,-9.6282795E-2,4.3363657E-2],"split_indices":[1,2,10,0,0,1,10,0,0,0,0],"split_type":[0,0,0,0,0,0,0,0,0,0,0],"sum_hessian":[2.4804554E1,2.3391397E0,2.2465414E1,1.3167738E0,1.0223659E0,1.7391787E1,5.073627E0,1.4074844E1,3.3169425E0,3.2036371E0,1.8699901E0],"tree_param":{"num_deleted":"0","num_feature":"13","num_nodes":"11","size_leaf_vector":"1"}},{"base_weights":[-4.7927923E-3,-1.7396301E-1,1.6083866E-1,2.018311E-1,-8.2249385E-1,8.072599E-2,-2.9369714E-2,-2.7300967E-2,6.5392E-2,-1.0933267E-1,-1.44802425E-2,1.8089095E-2,-7.48988E-2],"categories":[],"categories_nodes":[],"categories_segments":[],"categories_sizes":[],"default_left":[0,0,0,0,0,0,0,0,0,0,0,0,0],"id":57,"left_children":[1,3,5,7,9,-1,11,-1,-1,-1,-1,-1,-1],"loss_changes":[7.422333E-1,3.356501E0,1.6712749E0,2.1301708E0,7.5935006E-1,0E0,1.8480164E0,0E0,0E0,0E0,0E0,0E0,0E0],"parents":[2147483647,0,0,1,1,2,2,3,3,4,4,6,6],"right_children":[2,4,6,8,10,-1,12,-1,-1,-1,-1,-1,-1],"split_conditions":[6.882202E7,2.589E1,2.9651274E8,1.463E1,9.706E1,8.072599E-2,1.49451E5,-2.7300967E-2,6.5392E-2,-1.0933267E-1,-1.44802425E-2,1.8089095E-2,-7.48988E-2],"split_indices":[0,1,0,1,1,0,2,0,0,0,0,0,0],"split_type":[0,0,0,0,0,0,0,0,0,0,0,0,0],"sum_hessian":[2.4490925E1,1.2091146E1,1.2399779E1,8.091359E0,3.999787E0,2.0815547E0,1.0318224E1,4.1395726E0,3.951786E0,2.4195335E0,1.5802536E0,8.564459E0,1.7537653E0],"tree_param":{"num_deleted":"0","num_feature":"13","num_nodes":"13","size_leaf_vector":"1"}},{"base_weights":[-6.876322E-3,-5.4174595E-2,5.5975836E-2,4.3151837E-2,-4.2823184E-1,3.463925E-2,-2.104448E-2,-2.8998994E-3,-7.996469E-2],"categories":[],"categories_nodes":[],"categories_segments":[],"categories_sizes":[],"default_left":[0,0,0,0,0,0,0,0,0],"id":58,"left_children":[1,3,-1,5,7,-1,-1,-1,-1],"loss_changes":[7.0743936E-1,9.005884E-1,0E0,1.6213487E0,7.322001E-1,0E0,0E0,0E0,0E0],"parents":[2147483647,0,0,1,1,3,3,4,4],"right_children":[2,4,-1,6,8,-1,-1,-1,-1],"split_conditions":[3.1815942E6,3.8545046E8,5.5975836E-2,3.851562E4,4.009E1,3.463925E-2,-2.104448E-2,-2.8998994E-3,-7.996469E-2],"split_indices":[4,0,0,3,1,0,0,0,0],"split_type":[0,0,0,0,0,0,0,0,0],"sum_hessian":[2.4264677E1,2.323001E1,1.0346686E0,1.9135704E1,4.0943046E0,8.548195E0,1.0587508E1,2.492838E0,1.6014665E0],"tree_param":{"num_deleted":"0","num_feature":"13","num_nodes":"9","size_leaf_vector":"1"}},{"base_weights":[-6.8037566E-3,-4.4129744E-1,5.76978E-2,1.3631894E-2,-8.139732E-2,4.6849647E-1,-8.0643974E-2,7.633743E-2,-2.0784525E-2,-4.2854857E-2,9.714334E-3],"categories":[],"categories_nodes":[],"categories_segments":[],"categories_sizes":[],"default_left":[0,0,0,0,0,0,0,0,0,0,0],"id":59,"left_children":[1,3,5,-1,-1,7,9,-1,-1,-1,-1],"loss_changes":[7.275633E-1,8.3294284E-1,1.3277379E0,0E0,0E0,1.3283879E0,1.1446658E0,0E0,0E0,0E0,0E0],"parents":[2147483647,0,0,1,1,2,2,5,5,6,6],"right_children":[2,4,6,-1,-1,8,10,-1,-1,-1,-1],"split_conditions":[2.349464E4,3.713952E4,3.361841E4,1.3631894E-2,-8.139732E-2,3.8545046E8,5.558949E-1,7.633743E-2,-2.0784525E-2,-4.2854857E-2,9.714334E-3],"split_indices":[3,4,3,0,0,0,11,0,0,0,0],"split_type":[0,0,0,0,0,0,0,0,0,0,0],"sum_hessian":[2.4052216E1,2.353949E0,2.1698265E1,1.1718674E0,1.1820817E0,4.8650975E0,1.6833168E1,3.2983646E0,1.5667331E0,5.215912E0,1.1617256E1],"tree_param":{"num_deleted":"0","num_feature":"13","num_nodes":"11","size_leaf_vector":"1"}},{"base_weights":[-7.8718215E-3,4.2209685E-1,-7.114703E-2,-8.020905E-3,7.880436E-2,5.4626834E-2,-4.4979072E-1,1.872356E-2,-4.2180147E-2,-9.232886E-2,3.9039638E-2],"categories":[],"categories_nodes":[],"categories_segments":[],"categories_sizes":[],"default_left":[0,0,0,0,0,0,0,0,0,0,0],"id":60,"left_children":[1,3,5,-1,-1,7,9,-1,-1,-1,-1],"loss_changes":[7.0505124E-1,6.7478794E-1,1.0953375E0,0E0,0E0,1.2016245E0,2.6338568E0,0E0,0E0,0E0,0E0],"parents":[2147483647,0,0,1,1,2,2,5,5,6,6],"right_children":[2,4,6,-1,-1,8,10,-1,-1,-1,-1],"split_conditions":[5.44E0,1.46575E5,3.4408623E-1,-8.020905E-3,7.880436E-2,9.775E1,7.849274E-1,1.872356E-2,-4.2180147E-2,-9.232886E-2,3.9039638E-2],"split_indices":[1,2,10,0,0,1,10,0,0,0,0],"split_type":[0,0,0,0,0,0,0,0,0,0,0],"sum_hessian":[2.3811123E1,2.3271086E0,2.1484015E1,1.309913E0,1.0171957E0,1.6769447E1,4.7145677E0,1.3592985E1,3.1764617E0,2.9520147E0,1.7625529E0],"tree_param":{"num_deleted":"0","num_feature":"13","num_nodes":"11","size_leaf_vector":"1"}},{"base_weights":[-7.687187E-3,-3.0915672E-1,8.0244794E-2,1.3210323E-1,-9.4165154E-2,3.3855602E-1,-9.81418E-2,-3.4140036E-2,7.506412E-2,6.598591E-2,-3.0600212E-3,4.048236E-2,-2.516138E-2],"categories":[],"categories_nodes":[],"categories_segments":[],"categories_sizes":[],"default_left":[0,0,0,0,0,0,0,0,0,0,0,0,0],"id":61,"left_children":[1,3,5,7,-1,9,11,-1,-1,-1,-1,-1,-1],"loss_changes":[6.7482126E-1,1.7272794E0,9.4455844E-1,1.5039304E0,0E0,1.0050948E0,1.0647295E0,0E0,0E0,0E0,0E0,0E0,0E0],"parents":[2147483647,0,0,1,1,2,2,3,3,5,5,6,6],"right_children":[2,4,6,8,-1,10,12,-1,-1,-1,-1,-1,-1],"split_conditions":[1.1448281E-1,8.759711E-2,2.5540665E-1,8.5632294E-2,-9.4165154E-2,4.009E1,5.44E0,-3.4140036E-2,7.506412E-2,6.598591E-2,-3.0600212E-3,4.048236E-2,-2.516138E-2],"split_indices":[10,10,10,10,0,1,1,0,0,0,0,0,0],"split_type":[0,0,0,0,0,0,0,0,0,0,0,0,0],"sum_hessian":[2.3520641E1,4.7431555E0,1.8777487E1,3.2599742E0,1.4831812E0,7.303637E0,1.1473849E1,2.1002457E0,1.1597286E0,3.4838843E0,3.8197525E0,2.2996297E0,9.17422E0],"tree_param":{"num_deleted":"0","num_feature":"13","num_nodes":"13","size_leaf_vector":"1"}},{"base_weights":[-5.870514E-3,-1.731928E-1,1.5728886E-1,1.2644261E-1,-9.6620195E-2,7.64783E-2,-2.6775738E-2,-4.882116E-2,4.0175784E-2,1.6811648E-2,-6.83188E-2],"categories":[],"categories_nodes":[],"categories_segments":[],"categories_sizes":[],"default_left":[0,0,0,0,0,0,0,0,0,0,0],"id":62,"left_children":[1,3,5,7,-1,-1,9,-1,-1,-1,-1],"loss_changes":[6.9100535E-1,3.0874844E0,1.4555473E0,1.8784933E0,0E0,0E0,1.4985157E0,0E0,0E0,0E0,0E0],"parents":[2147483647,0,0,1,1,2,2,3,3,6,6],"right_children":[2,4,6,8,-1,-1,10,-1,-1,-1,-1],"split_conditions":[6.882202E7,1.0465298E0,2.9651274E8,1E0,-9.6620195E-2,7.64783E-2,1.49451E5,-4.882116E-2,4.0175784E-2,1.6811648E-2,-6.83188E-2],"split_indices":[0,11,0,5,0,0,2,0,0,0,0],"split_type":[0,0,0,0,0,0,0,0,0,0,0],"sum_hessian":[2.3313524E1,1.14795685E1,1.1833957E1,8.941581E0,2.537988E0,2.0181623E0,9.815794E0,2.5268924E0,6.414688E0,8.142214E0,1.67358E0],"tree_param":{"num_deleted":"0","num_feature":"13","num_nodes":"11","size_leaf_vector":"1"}},{"base_weights":[-8.844764E-3,-5.177371E-2,4.321831E-2,6.324859E-1,-6.301595E-2,1.646795E-3,9.4195664E-2,-9.072551E-2,4.4207266E-3],"categories":[],"categories_nodes":[],"categories_segments":[],"categories_sizes":[],"default_left":[0,0,0,0,0,0,0,0,0],"id":63,"left_children":[1,-1,3,5,7,-1,-1,-1,-1],"loss_changes":[6.5978444E-1,0E0,1.4639058E0,6.6417134E-1,1.86711E0,0E0,0E0,0E0,0E0],"parents":[2147483647,0,0,2,2,3,3,4,4],"right_children":[2,-1,4,6,8,-1,-1,-1,-1],"split_conditions":[2.0680262E5,-5.177371E-2,1.8048653E-1,1.31627E5,1.2226652E6,1.646795E-3,9.4195664E-2,-9.072551E-2,4.4207266E-3],"split_indices":[0,0,11,2,0,0,0,0,0],"split_type":[0,0,0,0,0,0,0,0,0],"sum_hessian":[2.3058157E1,1.3099163E0,2.1748241E1,2.5652795E0,1.9182962E1,1.2099744E0,1.355305E0,1.3209424E0,1.7862019E1],"tree_param":{"num_deleted":"0","num_feature":"13","num_nodes":"9","size_leaf_vector":"1"}},{"base_weights":[-9.765559E-3,-7.669E-2,3.8125455E-1,-7.214041E-2,-1.7283565E-3,6.705459E-2,-4.765005E-3,7.082406E-2,-8.007908E-3],"categories":[],"categories_nodes":[],"categories_segments":[],"categories_sizes":[],"default_left":[0,0,0,0,0,0,0,0,0],"id":64,"left_children":[1,3,5,-1,7,-1,-1,-1,-1],"loss_changes":[6.567035E-1,1.0284483E0,4.8751456E-1,0E0,1.1742079E0,0E0,0E0,0E0,0E0],"parents":[2147483647,0,0,1,1,2,2,4,4],"right_children":[2,4,6,-1,8,-1,-1,-1,-1],"split_conditions":[1.0695115E5,8.5632294E-2,9.65197E5,-7.214041E-2,8.759711E-2,6.705459E-2,-4.765005E-3,7.082406E-2,-8.007908E-3],"split_indices":[3,10,2,0,10,0,0,0,0],"split_type":[0,0,0,0,0,0,0,0,0],"sum_hessian":[2.29776E1,2.0306026E1,2.6715744E0,1.2168407E0,1.9089186E1,1.2590007E0,1.4125737E0,1.0982367E0,1.7990948E1],"tree_param":{"num_deleted":"0","num_feature":"13","num_nodes":"9","size_leaf_vector":"1"}},{"base_weights":[-6.556538E-3,-4.9933612E-2,4.359415E-2,6.070754E-1,-5.81501E-2,1.995421E-3,9.036459E-2,-8.6666115E-2,4.3480373E-3],"categories":[],"categories_nodes":[],"categories_segments":[],"categories_sizes":[],"default_left":[0,0,0,0,0,0,0,0,0],"id":65,"left_children":[1,-1,3,5,7,-1,-1,-1,-1],"loss_changes":[6.107872E-1,0E0,1.3282464E0,5.977919E-1,1.6823493E0,0E0,0E0,0E0,0E0],"parents":[2147483647,0,0,2,2,3,3,4,4],"right_children":[2,-1,4,6,8,-1,-1,-1,-1],"split_conditions":[2.0680262E5,-4.9933612E-2,1.8048653E-1,1.31627E5,1.2226652E6,1.995421E-3,9.036459E-2,-8.6666115E-2,4.3480373E-3],"split_indices":[0,0,11,2,0,0,0,0,0],"split_type":[0,0,0,0,0,0,0,0,0],"sum_hessian":[2.2834156E1,1.2818649E0,2.155229E1,2.5367196E0,1.9015572E1,1.2095177E0,1.3272018E0,1.2828015E0,1.7732769E1],"tree_param":{"num_deleted":"0","num_feature":"13","num_nodes":"9","size_leaf_vector":"1"}},{"base_weights":[-7.6161386E-3,-7.302172E-2,3.7796697E-1,-6.99143E-2,-1.2825829E-3,6.525552E-2,-3.3125337E-3,6.8260536E-2,-7.5641572E-3],"categories":[],"categories_nodes":[],"categories_segments":[],"categories_sizes":[],"default_left":[0,0,0,0,0,0,0,0,0],"id":66,"left_children":[1,3,5,-1,7,-1,-1,-1,-1],"loss_changes":[6.2653553E-1,9.48789E-1,4.2868584E-1,0E0,1.0672385E0,0E0,0E0,0E0,0E0],"parents":[2147483647,0,0,1,1,2,2,4,4],"right_children":[2,4,6,-1,8,-1,-1,-1,-1],"split_conditions":[1.0695115E5,8.5632294E-2,9.65197E5,-6.99143E-2,8.759711E-2,6.525552E-2,-3.3125337E-3,6.8260536E-2,-7.5641572E-3],"split_indices":[3,10,2,0,10,0,0,0,0],"split_type":[0,0,0,0,0,0,0,0,0],"sum_hessian":[2.2749115E1,2.0142935E1,2.60618E0,1.171628E0,1.8971308E1,1.2103559E0,1.3958241E0,1.0582845E0,1.7913023E1],"tree_param":{"num_deleted":"0","num_feature":"13","num_nodes":"9","size_leaf_vector":"1"}},{"base_weights":[-4.6019917E-3,-1.6553482E-1,1.4650102E-1,1.1526584E-1,-9.201248E-2,7.291805E-2,-2.864331E-2,-4.3432582E-2,3.6173936E-2,1.5380747E-2,-6.43533E-2],"categories":[],"categories_nodes":[],"categories_segments":[],"categories_sizes":[],"default_left":[0,0,0,0,0,0,0,0,0,0,0],"id":67,"left_children":[1,3,5,7,-1,-1,9,-1,-1,-1,-1],"loss_changes":[5.984015E-1,2.6281633E0,1.3177469E0,1.4525825E0,0E0,0E0,1.303082E0,0E0,0E0,0E0,0E0],"parents":[2147483647,0,0,1,1,2,2,3,3,6,6],"right_children":[2,4,6,8,-1,-1,10,-1,-1,-1,-1],"split_conditions":[6.882202E7,1.0465298E0,2.9651274E8,1E0,-9.201248E-2,7.291805E-2,1.49451E5,-4.3432582E-2,3.6173936E-2,1.5380747E-2,-6.43533E-2],"split_indices":[0,11,0,5,0,0,2,0,0,0,0],"split_type":[0,0,0,0,0,0,0,0,0,0,0],"sum_hessian":[2.2610651E1,1.0902931E1,1.1707719E1,8.5634985E0,2.3394325E0,1.9747393E0,9.73298E0,2.4154098E0,6.1480894E0,8.084114E0,1.6488658E0],"tree_param":{"num_deleted":"0","num_feature":"13","num_nodes":"11","size_leaf_vector":"1"}},{"base_weights":[-7.5634522E-3,-7.15308E-2,3.6974728E-1,-6.55058E-2,-6.6486956E-3,6.36789E-2,-2.5067902E-3,6.481544E-2,-7.6229023E-3],"categories":[],"categories_nodes":[],"categories_segments":[],"categories_sizes":[],"default_left":[0,0,0,0,0,0,0,0,0],"id":68,"left_children":[1,3,5,-1,7,-1,-1,-1,-1],"loss_changes":[5.9039265E-1,7.837682E-1,3.901598E-1,0E0,9.489637E-1,0E0,0E0,0E0,0E0],"parents":[2147483647,0,0,1,1,2,2,4,4],"right_children":[2,4,6,-1,8,-1,-1,-1,-1],"split_conditions":[1.0695115E5,8.5632294E-2,9.65197E5,-6.55058E-2,8.759711E-2,6.36789E-2,-2.5067902E-3,6.481544E-2,-7.6229023E-3],"split_indices":[3,10,2,0,10,0,0,0,0],"split_type":[0,0,0,0,0,0,0,0,0],"sum_hessian":[2.2365698E1,1.9816525E1,2.5491734E0,1.0727203E0,1.8743803E1,1.1550512E0,1.3941222E0,1.0017152E0,1.7742088E1],"tree_param":{"num_deleted":"0","num_feature":"13","num_nodes":"9","size_leaf_vector":"1"}},{"base_weights":[-4.510473E-3,-4.9790427E-2,4.570979E-2,5.6449056E-1,-4.9611904E-2,7.358861E-4,8.5658126E-2,-8.319481E-2,4.9217376E-3],"categories":[],"categories_nodes":[],"categories_segments":[],"categories_sizes":[],"default_left":[0,0,0,0,0,0,0,0,0],"id":69,"left_children":[1,-1,3,5,7,-1,-1,-1,-1],"loss_changes":[5.98511E-1,0E0,1.1161953E0,5.626905E-1,1.5493296E0,0E0,0E0,0E0,0E0],"parents":[2147483647,0,0,2,2,3,3,4,4],"right_children":[2,-1,4,6,8,-1,-1,-1,-1],"split_conditions":[2.0680262E5,-4.9790427E-2,1.8048653E-1,1.31627E5,1.2226652E6,7.358861E-4,8.5658126E-2,-8.319481E-2,4.9217376E-3],"split_indices":[0,0,11,2,0,0,0,0,0],"split_type":[0,0,0,0,0,0,0,0,0],"sum_hessian":[2.2236073E1,1.2306844E0,2.1005388E1,2.4964893E0,1.8508898E1,1.2112854E0,1.2852039E0,1.2439233E0,1.7264975E1],"tree_param":{"num_deleted":"0","num_feature":"13","num_nodes":"9","size_leaf_vector":"1"}},{"base_weights":[-5.8886134E-3,-6.849896E-2,3.6651754E-1,7.8662954E-2,-3.1159565E-1,6.1996978E-2,-1.2779015E-3,6.3057624E-2,-8.4855845E-3,-6.3491315E-2,1.0044641E-2],"categories":[],"categories_nodes":[],"categories_segments":[],"categories_sizes":[],"default_left":[0,0,0,0,0,0,0,0,0,0,0],"id":70,"left_children":[1,3,5,7,9,-1,-1,-1,-1,-1,-1],"loss_changes":[5.647893E-1,7.635142E-1,3.4331182E-1,1.2868452E0,1.12836E0,0E0,0E0,0E0,0E0,0E0,0E0],"parents":[2147483647,0,0,1,1,2,2,3,3,4,4],"right_children":[2,4,6,8,10,-1,-1,-1,-1,-1,-1],"split_conditions":[1.0695115E5,5.494984E4,9.65197E5,1.265E1,1.46E1,6.1996978E-2,-1.2779015E-3,6.3057624E-2,-8.4855845E-3,-6.3491315E-2,1.0044641E-2],"split_indices":[3,3,2,1,1,0,0,0,0,0,0],"split_type":[0,0,0,0,0,0,0,0,0,0,0],"sum_hessian":[2.2146E1,1.9657217E1,2.488783E0,1.2666058E1,6.991159E0,1.1115209E0,1.377262E0,2.242115E0,1.0423943E1,3.61426E0,3.376899E0],"tree_param":{"num_deleted":"0","num_feature":"13","num_nodes":"11","size_leaf_vector":"1"}},{"base_weights":[-2.6120837E-3,-1.2313113E-1,1.9245423E-1,8.7337345E-3,-7.86798E-2,5.2246076E-1,-5.7340592E-2,-1.3341323E-2,6.0137417E-2,8.888068E-2,-1.301553E-2,-3.133547E-2,3.678475E-2],"categories":[],"categories_nodes":[],"categories_segments":[],"categories_sizes":[],"default_left":[0,0,0,0,0,0,0,0,0,0,0,0,0],"id":71,"left_children":[1,3,5,7,-1,9,11,-1,-1,-1,-1,-1,-1],"loss_changes":[5.633092E-1,1.3018599E0,7.847054E-1,1.2034878E0,0E0,1.0824085E0,7.8061783E-1,0E0,0E0,0E0,0E0,0E0,0E0],"parents":[2147483647,0,0,1,1,2,2,3,3,5,5,6,6],"right_children":[2,4,6,8,-1,10,12,-1,-1,-1,-1,-1,-1],"split_conditions":[7.329984E0,1.670484E5,4.2100025E5,1.2455297E5,-7.86798E-2,3.8545046E8,5.74476E4,-1.3341323E-2,6.0137417E-2,8.888068E-2,-1.301553E-2,-3.133547E-2,3.678475E-2],"split_indices":[11,4,4,4,0,0,3,0,0,0,0,0,0],"split_type":[0,0,0,0,0,0,0,0,0,0,0,0,0],"sum_hessian":[2.1953222E1,1.3797438E1,8.155786E0,1.2333682E1,1.4637558E0,3.0434682E0,5.112317E0,1.0572672E1,1.7610104E0,1.7174588E0,1.3260094E0,3.3551414E0,1.7571758E0],"tree_param":{"num_deleted":"0","num_feature":"13","num_nodes":"13","size_leaf_vector":"1"}},{"base_weights":[-1.0705132E-4,-4.696905E-2,4.770204E-2,5.544239E-1,-4.587664E-2,1.8003552E-3,8.268242E-2,-7.932275E-2,4.8478763E-3],"categories":[],"categories_nodes":[],"categories_segments":[],"categories_sizes":[],"default_left":[0,0,0,0,0,0,0,0,0],"id":72,"left_children":[1,-1,3,5,7,-1,-1,-1,-1],"loss_changes":[5.32634E-1,0E0,1.0465765E0,4.8680532E-1,1.3854156E0,0E0,0E0,0E0,0E0],"parents":[2147483647,0,0,2,2,3,3,4,4],"right_children":[2,-1,4,6,8,-1,-1,-1,-1],"split_conditions":[2.0680262E5,-4.696905E-2,1.8048653E-1,1.31627E5,1.2226652E6,1.8003552E-3,8.268242E-2,-7.932275E-2,4.8478763E-3],"split_indices":[0,0,11,2,0,0,0,0,0],"split_type":[0,0,0,0,0,0,0,0,0],"sum_hessian":[2.1726984E1,1.1922592E0,2.0534725E1,2.433393E0,1.8101332E1,1.1785812E0,1.2548118E0,1.1988581E0,1.6902473E1],"tree_param":{"num_deleted":"0","num_feature":"13","num_nodes":"9","size_leaf_vector":"1"}},{"base_weights":[-1.7398366E-3,-7.196792E-2,3.225227E-1,7.543665E-2,-3.467632E-1,5.5556715E-2,-1.1041473E-2,4.559949E-2,-1.4572079E-2,-7.9338714E-2,-1.0711732E-2],"categories":[],"categories_nodes":[],"categories_segments":[],"categories_sizes":[],"default_left":[0,0,0,0,0,0,0,0,0,0,0],"id":73,"left_children":[1,3,5,7,9,-1,-1,-1,-1,-1,-1],"loss_changes":[5.3868973E-1,8.129486E-1,4.8632428E-1,1.1996E0,6.599825E-1,0E0,0E0,0E0,0E0,0E0,0E0],"parents":[2147483647,0,0,1,1,2,2,3,3,4,4],"right_children":[2,4,6,8,10,-1,-1,-1,-1,-1,-1],"split_conditions":[8.616515E4,5.494984E4,1.5E1,2.589E1,5.689516E4,5.5556715E-2,-1.1041473E-2,4.559949E-2,-1.4572079E-2,-7.9338714E-2,-1.0711732E-2],"split_indices":[3,3,5,1,3,0,0,0,0,0,0],"split_type":[0,0,0,0,0,0,0,0,0,0,0],"sum_hessian":[2.163617E1,1.8423996E1,3.212173E0,1.2463733E1,5.960264E0,1.9040163E0,1.3081567E0,4.1906996E0,8.273033E0,1.2744427E0,4.6858215E0],"tree_param":{"num_deleted":"0","num_feature":"13","num_nodes":"11","size_leaf_vector":"1"}},{"base_weights":[-2.1919436E-3,-1.6427763E-1,1.4507705E-1,1.03296824E-1,-8.866697E-2,7.025541E-2,-2.4373451E-2,-1.1618032E-2,5.3088274E-2,1.4227378E-2,-5.8748275E-2],"categories":[],"categories_nodes":[],"categories_segments":[],"categories_sizes":[],"default_left":[0,0,0,0,0,0,0,0,0,0,0],"id":74,"left_children":[1,3,5,7,-1,-1,9,-1,-1,-1,-1],"loss_changes":[5.6047416E-1,2.2509515E0,1.1800077E0,9.107514E-1,0E0,0E0,1.0601948E0,0E0,0E0,0E0,0E0],"parents":[2147483647,0,0,1,1,2,2,3,3,6,6],"right_children":[2,4,6,8,-1,-1,10,-1,-1,-1,-1],"split_conditions":[6.882202E7,3.974949E6,2.9651274E8,5.558949E-1,-8.866697E-2,7.025541E-2,1.49451E5,-1.1618032E-2,5.3088274E-2,1.4227378E-2,-5.8748275E-2],"split_indices":[0,0,0,11,0,0,2,0,0,0,0],"split_type":[0,0,0,0,0,0,0,0,0,0,0],"sum_hessian":[2.1481644E1,1.0171404E1,1.1310241E1,8.047582E0,2.123822E0,1.9031088E0,9.407131E0,5.799185E0,2.2483974E0,7.835598E0,1.5715337E0],"tree_param":{"num_deleted":"0","num_feature":"13","num_nodes":"11","size_leaf_vector":"1"}},{"base_weights":[-3.060042E-3,3.808268E-1,-6.330429E-2,6.6516898E-3,4.9818292E-2,5.770211E-2,-4.2372698E-1,2.4982046E-2,-1.6639149E-2,-8.483521E-2,3.3427063E-2],"categories":[],"categories_nodes":[],"categories_segments":[],"categories_sizes":[],"default_left":[0,0,0,0,0,0,0,0,0,0,0],"id":75,"left_children":[1,3,5,-1,-1,7,9,-1,-1,-1,-1],"loss_changes":[5.389216E-1,8.3498E-2,9.0100485E-1,0E0,0E0,7.2725415E-1,1.9481103E0,0E0,0E0,0E0,0E0],"parents":[2147483647,0,0,1,1,2,2,5,5,6,6],"right_children":[2,4,6,-1,-1,8,10,-1,-1,-1,-1],"split_conditions":[5.44E0,1.39498E5,3.4408623E-1,6.6516898E-3,4.9818292E-2,2.28136E5,7.849274E-1,2.4982046E-2,-1.6639149E-2,-8.483521E-2,3.3427063E-2],"split_indices":[1,2,10,0,0,2,10,0,0,0,0],"split_type":[0,0,0,0,0,0,0,0,0,0,0],"sum_hessian":[2.1260311E1,2.1620395E0,1.909827E1,1.0137504E0,1.148289E0,1.4926748E1,4.171523E0,7.9749317E0,6.951816E0,2.5973203E0,1.5742027E0],"tree_param":{"num_deleted":"0","num_feature":"13","num_nodes":"11","size_leaf_vector":"1"}},{"base_weights":[-2.423408E-3,-3.7962854E-1,5.5938855E-2,1.8493447E-2,-7.4055515E-2,4.0206495E-1,-6.755886E-2,7.174983E-2,-2.3305163E-2,-3.880913E-2,9.668106E-3],"categories":[],"categories_nodes":[],"categories_segments":[],"categories_sizes":[],"default_left":[0,0,0,0,0,0,0,0,0,0,0],"id":76,"left_children":[1,3,5,-1,-1,7,9,-1,-1,-1,-1],"loss_changes":[5.0618297E-1,7.645637E-1,8.7987405E-1,0E0,0E0,1.2469754E0,8.565967E-1,0E0,0E0,0E0,0E0],"parents":[2147483647,0,0,1,1,2,2,5,5,6,6],"right_children":[2,4,6,-1,-1,8,10,-1,-1,-1,-1],"split_conditions":[2.349464E4,3.713952E4,3.361841E4,1.8493447E-2,-7.4055515E-2,3.8545046E8,5.558949E-1,7.174983E-2,-2.3305163E-2,-3.880913E-2,9.668106E-3],"split_indices":[3,4,3,0,0,0,11,0,0,0,0],"split_type":[0,0,0,0,0,0,0,0,0,0,0],"sum_hessian":[2.1028479E1,2.080053E0,1.8948425E1,1.0013494E0,1.0787036E0,4.389726E0,1.4558699E1,2.846359E0,1.5433671E0,4.4706926E0,1.0088007E1],"tree_param":{"num_deleted":"0","num_feature":"13","num_nodes":"11","size_leaf_vector":"1"}},{"base_weights":[-3.7453722E-3,-6.51235E-2,3.6056483E-1,2.8767174E-3,-4.8486497E-2,5.9702467E-2,-6.531921E-4,-8.006417E-3,4.1674905E-2],"categories":[],"categories_nodes":[],"categories_segments":[],"categories_sizes":[],"default_left":[0,0,0,0,0,0,0,0,0],"id":77,"left_children":[1,3,5,7,-1,-1,-1,-1,-1],"loss_changes":[5.1132816E-1,5.585009E-1,2.9023945E-1,6.4408886E-1,0E0,0E0,0E0,0E0,0E0],"parents":[2147483647,0,0,1,1,2,2,3,3],"right_children":[2,4,6,8,-1,-1,-1,-1,-1],"split_conditions":[1.0695115E5,6.4003E5,1.202E1,3.94207E5,-4.8486497E-2,5.9702467E-2,-6.531921E-4,-8.006417E-3,4.1674905E-2],"split_indices":[3,2,1,2,0,0,0,0,0],"split_type":[0,0,0,0,0,0,0,0,0],"sum_hessian":[2.0817179E1,1.8518473E1,2.2987068E0,1.6791338E1,1.7271341E0,1.0171704E0,1.2815365E0,1.4659993E1,2.131345E0],"tree_param":{"num_deleted":"0","num_feature":"13","num_nodes":"9","size_leaf_vector":"1"}},{"base_weights":[-1.2917133E-3,-6.922194E-2,3.132934E-1,1.5712531E-2,-5.20669E-2,5.2275192E-2,-8.505031E-3,-7.258425E-3,6.815652E-2],"categories":[],"categories_nodes":[],"categories_segments":[],"categories_sizes":[],"default_left":[0,0,0,0,0,0,0,0,0],"id":78,"left_children":[1,3,5,7,-1,-1,-1,-1,-1],"loss_changes":[4.8630878E-1,7.25198E-1,3.8171718E-1,1.0318669E0,0E0,0E0,0E0,0E0,0E0],"parents":[2147483647,0,0,1,1,2,2,3,3],"right_children":[2,4,6,8,-1,-1,-1,-1,-1],"split_conditions":[8.616515E4,4.37148E5,1.5E1,3.94207E5,-5.20669E-2,5.2275192E-2,-8.505031E-3,-7.258425E-3,6.815652E-2],"split_indices":[3,2,5,2,0,0,0,0,0],"split_type":[0,0,0,0,0,0,0,0,0],"sum_hessian":[2.0741951E1,1.7699871E1,3.04208E0,1.5709507E1,1.9903644E0,1.7890443E0,1.2530357E0,1.465689E1,1.052617E0],"tree_param":{"num_deleted":"0","num_feature":"13","num_nodes":"9","size_leaf_vector":"1"}},{"base_weights":[1.3410983E-3,-1.1889741E-1,1.9098705E-1,5.648313E-3,-7.3536895E-2,4.472783E-1,-9.597408E-2,-1.1886026E-2,5.2231293E-2,8.227401E-2,8.940837E-3,-4.8571758E-2,3.194924E-2],"categories":[],"categories_nodes":[],"categories_segments":[],"categories_sizes":[],"default_left":[0,0,0,0,0,0,0,0,0,0,0,0,0],"id":79,"left_children":[1,3,5,7,-1,9,11,-1,-1,-1,-1,-1,-1],"loss_changes":[5.1602846E-1,1.0680213E0,6.885115E-1,8.674679E-1,0E0,5.732074E-1,9.5907015E-1,0E0,0E0,0E0,0E0,0E0,0E0],"parents":[2147483647,0,0,1,1,2,2,3,3,5,5,6,6],"right_children":[2,4,6,8,-1,10,12,-1,-1,-1,-1,-1,-1],"split_conditions":[7.329984E0,1.670484E5,4.7223425E5,1.2455297E5,-7.3536895E-2,5.44E0,1.9297535E6,-1.1886026E-2,5.2231293E-2,8.227401E-2,8.940837E-3,-4.8571758E-2,3.194924E-2],"split_indices":[11,4,4,4,0,1,4,0,0,0,0,0,0],"split_type":[0,0,0,0,0,0,0,0,0,0,0,0,0],"sum_hessian":[2.0634266E1,1.2856255E1,7.778011E0,1.1519756E1,1.3364984E0,3.8134573E0,3.9645538E0,9.903182E0,1.616574E0,1.227073E0,2.5863843E0,1.9583565E0,2.0061975E0],"tree_param":{"num_deleted":"0","num_feature":"13","num_nodes":"13","size_leaf_vector":"1"}},{"base_weights":[3.1422738E-3,-4.4690605E-2,4.9653288E-2,5.7426286E-1,-4.827482E-2,3.750554E-3,8.0893844E-2,-7.3306195E-2,3.972255E-3],"categories":[],"categories_nodes":[],"categories_segments":[],"categories_sizes":[],"default_left":[0,0,0,0,0,0,0,0,0],"id":80,"left_children":[1,-1,3,5,7,-1,-1,-1,-1],"loss_changes":[4.7143397E-1,0E0,1.0732654E0,3.82689E-1,1.1181667E0,0E0,0E0,0E0,0E0],"parents":[2147483647,0,0,2,2,3,3,4,4],"right_children":[2,-1,4,6,8,-1,-1,-1,-1],"split_conditions":[2.0680262E5,-4.4690605E-2,1.8048653E-1,1.31627E5,1.2226652E6,3.750554E-3,8.0893844E-2,-7.3306195E-2,3.972255E-3],"split_indices":[0,0,11,2,0,0,0,0,0],"split_type":[0,0,0,0,0,0,0,0,0],"sum_hessian":[2.046184E1,1.1102517E0,1.9351587E1,2.2789457E0,1.7072641E1,1.0460974E0,1.2328482E0,1.1093429E0,1.5963299E1],"tree_param":{"num_deleted":"0","num_feature":"13","num_nodes":"9","size_leaf_vector":"1"}},{"base_weights":[1.4608902E-3,-3.5526335E-1,5.9258252E-2,1.1232454E-2,-6.301091E-2,-2.9329121E-2,4.892489E-1,7.7629886E-3,-4.9611613E-2,6.746244E-2,1.1324293E-2],"categories":[],"categories_nodes":[],"categories_segments":[],"categories_sizes":[],"default_left":[0,0,0,0,0,0,0,0,0,0,0],"id":81,"left_children":[1,3,5,-1,-1,7,9,-1,-1,-1,-1],"loss_changes":[4.6170422E-1,4.7212163E-1,7.475976E-1,0E0,0E0,8.82512E-1,1.5675104E-1,0E0,0E0,0E0,0E0],"parents":[2147483647,0,0,1,1,2,2,5,5,6,6],"right_children":[2,4,6,-1,-1,8,10,-1,-1,-1,-1],"split_conditions":[6.295E4,1.717E1,9.713718E0,1.1232454E-2,-6.301091E-2,3.8545046E8,1.5527924E1,7.7629886E-3,-4.9611613E-2,6.746244E-2,1.1324293E-2],"split_indices":[2,1,11,0,0,0,11,0,0,0,0],"split_type":[0,0,0,0,0,0,0,0,0,0,0],"sum_hessian":[2.0372488E1,2.1229534E0,1.8249535E1,1.0048115E0,1.1181419E0,1.5904628E1,2.3449059E0,1.3617926E1,2.286702E0,1.0386527E0,1.3062533E0],"tree_param":{"num_deleted":"0","num_feature":"13","num_nodes":"11","size_leaf_vector":"1"}},{"base_weights":[5.717325E-4,-1.1520366E-1,1.8436617E-1,1.1712144E-1,-4.210403E-1,4.2867136E-1,-9.2292175E-2,-3.8152743E-2,3.4224275E-2,-8.408804E-2,-1.0781311E-3,7.951317E-2,7.976557E-3,-4.2781405E-2,3.515887E-2],"categories":[],"categories_nodes":[],"categories_segments":[],"categories_sizes":[],"default_left":[0,0,0,0,0,0,0,0,0,0,0,0,0,0,0],"id":82,"left_children":[1,3,5,7,9,11,13,-1,-1,-1,-1,-1,-1,-1,-1],"loss_changes":[4.7321045E-1,1.0189792E0,6.203809E-1,1.0890132E0,1.043177E0,5.427193E-1,8.7313443E-1,0E0,0E0,0E0,0E0,0E0,0E0,0E0,0E0],"parents":[2147483647,0,0,1,1,2,2,3,3,4,4,5,5,6,6],"right_children":[2,4,6,8,10,12,14,-1,-1,-1,-1,-1,-1,-1,-1],"split_conditions":[7.329984E0,1.0465298E0,4.7223425E5,1E0,6.882202E7,5.44E0,5.561197E4,-3.8152743E-2,3.4224275E-2,-8.408804E-2,-1.0781311E-3,7.951317E-2,7.976557E-3,-4.2781405E-2,3.515887E-2],"split_indices":[11,11,4,5,0,1,3,0,0,0,0,0,0,0,0],"split_type":[0,0,0,0,0,0,0,0,0,0,0,0,0,0,0],"sum_hessian":[2.0240355E1,1.2646985E1,7.593369E0,7.537932E0,5.109053E0,3.7406762E0,3.8526928E0,2.1284974E0,5.409435E0,2.0062828E0,3.1027706E0,1.2006686E0,2.5400076E0,2.2147772E0,1.6379156E0],"tree_param":{"num_deleted":"0","num_feature":"13","num_nodes":"15","size_leaf_vector":"1"}},{"base_weights":[-3.5721354E-5,-4.3732706E-2,4.6037488E-2,5.235108E-1,-4.3647952E-2,1.4091632E-3,7.624832E-2,-7.151509E-2,4.3202983E-3],"categories":[],"categories_nodes":[],"categories_segments":[],"categories_sizes":[],"default_left":[0,0,0,0,0,0,0,0,0],"id":83,"left_children":[1,-1,3,5,7,-1,-1,-1,-1],"loss_changes":[4.4300967E-1,0E0,8.7472606E-1,3.8157713E-1,1.0614537E0,0E0,0E0,0E0,0E0],"parents":[2147483647,0,0,2,2,3,3,4,4],"right_children":[2,-1,4,6,8,-1,-1,-1,-1],"split_conditions":[2.0680262E5,-4.3732706E-2,1.8048653E-1,1.31627E5,1.2226652E6,1.4091632E-3,7.624832E-2,-7.151509E-2,4.3202983E-3],"split_indices":[0,0,11,2,0,0,0,0,0],"split_type":[0,0,0,0,0,0,0,0,0],"sum_hessian":[1.9989107E1,1.0958778E0,1.889323E1,2.2226973E0,1.6670532E1,1.0478837E0,1.1748136E0,1.0806979E0,1.5589834E1],"tree_param":{"num_deleted":"0","num_feature":"13","num_nodes":"9","size_leaf_vector":"1"}},{"base_weights":[-1.6284393E-3,-6.884193E-2,3.1079784E-1,-4.933898E-2,1.31480275E-2,5.001959E-2,-7.0972824E-3,2.251023E-2,-1.6618436E-2],"categories":[],"categories_nodes":[],"categories_segments":[],"categories_sizes":[],"default_left":[0,0,0,0,0,0,0,0,0],"id":84,"left_children":[1,3,5,-1,7,-1,-1,-1,-1],"loss_changes":[4.6027136E-1,6.3367164E-1,3.1615904E-1,0E0,6.4844775E-1,0E0,0E0,0E0,0E0],"parents":[2147483647,0,0,1,1,2,2,4,4],"right_children":[2,4,6,-1,8,-1,-1,-1,-1],"split_conditions":[8.616515E4,1.14264615E-1,1.5E1,-4.933898E-2,2.6620203E-1,5.001959E-2,-7.0972824E-3,2.251023E-2,-1.6618436E-2],"split_indices":[3,10,5,0,10,0,0,0,0],"split_type":[0,0,0,0,0,0,0,0,0],"sum_hessian":[1.9899569E1,1.701806E1,2.881508E0,1.9424218E0,1.5075638E1,1.7186692E0,1.1628388E0,6.792412E0,8.283226E0],"tree_param":{"num_deleted":"0","num_feature":"13","num_nodes":"9","size_leaf_vector":"1"}},{"base_weights":[-1.467697E-3,-1.1481204E-1,1.7704989E-1,5.2365838E-3,-7.045442E-2,4.040382E-1,-8.211499E-2,-1.099443E-2,4.808258E-2,7.69878E-2,6.290443E-3,-4.6852868E-2,3.2260682E-2],"categories":[],"categories_nodes":[],"categories_segments":[],"categories_sizes":[],"default_left":[0,0,0,0,0,0,0,0,0,0,0,0,0],"id":85,"left_children":[1,3,5,7,-1,9,11,-1,-1,-1,-1,-1,-1],"loss_changes":[4.407562E-1,9.463969E-1,5.310128E-1,7.1328795E-1,0E0,5.356722E-1,8.9906394E-1,0E0,0E0,0E0,0E0,0E0,0E0],"parents":[2147483647,0,0,1,1,2,2,3,3,5,5,6,6],"right_children":[2,4,6,8,-1,10,12,-1,-1,-1,-1,-1,-1],"split_conditions":[7.329984E0,1.670484E5,4.7223425E5,1.2455297E5,-7.045442E-2,5.44E0,1.9297535E6,-1.099443E-2,4.808258E-2,7.69878E-2,6.290443E-3,-4.6852868E-2,3.2260682E-2],"split_indices":[11,4,4,4,0,1,4,0,0,0,0,0,0],"split_type":[0,0,0,0,0,0,0,0,0,0,0,0,0],"sum_hessian":[1.9778374E1,1.2315731E1,7.4626427E0,1.10562E1,1.2595313E0,3.6802835E0,3.782359E0,9.519531E0,1.5366688E0,1.1693854E0,2.510898E0,1.854292E0,1.928067E0],"tree_param":{"num_deleted":"0","num_feature":"13","num_nodes":"13","size_leaf_vector":"1"}},{"base_weights":[3.8086833E-4,-5.5904783E-2,3.4053456E-2,-2.213727E-1,8.3285525E-2,-7.4721925E-2,7.246714E-3,4.3304145E-2,-2.3523059E-2],"categories":[],"categories_nodes":[],"categories_segments":[],"categories_sizes":[],"default_left":[0,0,0,0,0,0,0,0,0],"id":86,"left_children":[1,3,-1,5,7,-1,-1,-1,-1],"loss_changes":[4.1373038E-1,4.4560823E-1,0E0,1.4057062E0,1.305029E0,0E0,0E0,0E0,0E0],"parents":[2147483647,0,0,1,1,3,3,4,4],"right_children":[2,4,-1,6,8,-1,-1,-1,-1],"split_conditions":[1.0695115E5,6.882202E7,3.4053456E-2,1E0,3.74812E8,-7.4721925E-2,7.246714E-3,4.3304145E-2,-2.3523059E-2],"split_indices":[3,0,0,5,0,0,0,0,0],"split_type":[0,0,0,0,0,0,0,0,0],"sum_hessian":[1.9615147E1,1.7547232E1,2.067914E0,7.747115E0,9.8001175E0,2.22406E0,5.523055E0,4.4996195E0,5.300498E0],"tree_param":{"num_deleted":"0","num_feature":"13","num_nodes":"9","size_leaf_vector":"1"}},{"base_weights":[-3.687641E-4,-4.1660327E-2,4.3535437E-2,5.070435E-1,-4.4265512E-2,1.8532485E-3,7.358062E-2,-6.8776555E-2,3.9086863E-3],"categories":[],"categories_nodes":[],"categories_segments":[],"categories_sizes":[],"default_left":[0,0,0,0,0,0,0,0,0],"id":87,"left_children":[1,-1,3,5,7,-1,-1,-1,-1],"loss_changes":[3.9241368E-1,0E0,8.132611E-1,3.4118265E-1,9.525037E-1,0E0,0E0,0E0,0E0],"parents":[2147483647,0,0,2,2,3,3,4,4],"right_children":[2,-1,4,6,8,-1,-1,-1,-1],"split_conditions":[2.0680262E5,-4.1660327E-2,1.8048653E-1,1.31627E5,1.2226652E6,1.8532485E-3,7.358062E-2,-6.8776555E-2,3.9086863E-3],"split_indices":[0,0,11,2,0,0,0,0,0],"split_type":[0,0,0,0,0,0,0,0,0],"sum_hessian":[1.9480879E1,1.0487998E0,1.843208E1,2.175026E0,1.6257053E1,1.0384599E0,1.1365662E0,1.0327417E0,1.5224311E1],"tree_param":{"num_deleted":"0","num_feature":"13","num_nodes":"9","size_leaf_vector":"1"}},{"base_weights":[-1.8594068E-3,-6.448047E-2,2.9228833E-1,6.55672E-2,-3.079127E-1,4.7624312E-2,-7.57048E-3,5.7001263E-2,-8.622627E-3,-5.341055E-2,4.855168E-3],"categories":[],"categories_nodes":[],"categories_segments":[],"categories_sizes":[],"default_left":[0,0,0,0,0,0,0,0,0,0,0],"id":88,"left_children":[1,3,5,7,9,-1,-1,-1,-1,-1,-1],"loss_changes":[3.9449936E-1,5.78429E-1,2.90606E-1,9.923513E-1,5.351614E-1,0E0,0E0,0E0,0E0,0E0,0E0],"parents":[2147483647,0,0,1,1,2,2,3,3,4,4],"right_children":[2,4,6,8,10,-1,-1,-1,-1,-1,-1],"split_conditions":[8.616515E4,5.494984E4,1.5E1,1.265E1,1.46E1,4.7624312E-2,-7.57048E-3,5.7001263E-2,-8.622627E-3,-5.341055E-2,4.855168E-3],"split_indices":[3,3,5,1,1,0,0,0,0,0,0],"split_type":[0,0,0,0,0,0,0,0,0,0,0],"sum_hessian":[1.9393902E1,1.6633574E1,2.7603295E0,1.1317912E1,5.3156605E0,1.6442355E0,1.1160941E0,1.9806291E0,9.337283E0,2.947192E0,2.3684685E0],"tree_param":{"num_deleted":"0","num_feature":"13","num_nodes":"11","size_leaf_vector":"1"}},{"base_weights":[3.2203872E-4,3.4143914E-2,-5.4825503E-2,5.7139564E-2,-3.9314452E-1,1.7140964E-2,-3.3917375E-2,-7.947519E-2,3.0937795E-2],"categories":[],"categories_nodes":[],"categories_segments":[],"categories_sizes":[],"default_left":[0,0,0,0,0,0,0,0,0],"id":89,"left_children":[1,-1,3,5,7,-1,-1,-1,-1],"loss_changes":[3.9955115E-1,0E0,7.152345E-1,7.1996546E-1,1.5647148E0,0E0,0E0,0E0,0E0],"parents":[2147483647,0,0,2,2,3,3,4,4],"right_children":[2,-1,4,6,8,-1,-1,-1,-1],"split_conditions":[5.44E0,3.4143914E-2,3.4408623E-1,9.775E1,7.849274E-1,1.7140964E-2,-3.3917375E-2,-7.947519E-2,3.0937795E-2],"split_indices":[1,0,10,1,10,0,0,0,0],"split_type":[0,0,0,0,0,0,0,0,0],"sum_hessian":[1.9244322E1,1.9557271E0,1.7288595E1,1.3614161E1,3.6744342E0,1.1007755E1,2.6064057E0,2.2543938E0,1.4200405E0],"tree_param":{"num_deleted":"0","num_feature":"13","num_nodes":"9","size_leaf_vector":"1"}},{"base_weights":[-1.5058691E-3,-1.1227027E-1,1.7239521E-1,6.0581174E-3,-6.848677E-2,4.053951E-1,-9.748533E-2,-1.0148722E-2,4.4915263E-2,7.2576866E-2,9.52581E-3,-4.534841E-2,2.8936625E-2],"categories":[],"categories_nodes":[],"categories_segments":[],"categories_sizes":[],"default_left":[0,0,0,0,0,0,0,0,0,0,0,0,0],"id":90,"left_children":[1,3,5,7,-1,9,11,-1,-1,-1,-1,-1,-1],"loss_changes":[4.0524513E-1,8.743966E-1,5.544987E-1,6.000545E-1,0E0,3.8682157E-1,7.6481587E-1,0E0,0E0,0E0,0E0,0E0,0E0],"parents":[2147483647,0,0,1,1,2,2,3,3,5,5,6,6],"right_children":[2,4,6,8,-1,10,12,-1,-1,-1,-1,-1,-1],"split_conditions":[7.329984E0,1.670484E5,4.7223425E5,1.2455297E5,-6.848677E-2,5.44E0,1.9297535E6,-1.0148722E-2,4.4915263E-2,7.2576866E-2,9.52581E-3,-4.534841E-2,2.8936625E-2],"split_indices":[11,4,4,4,0,1,4,0,0,0,0,0,0],"split_type":[0,0,0,0,0,0,0,0,0,0,0,0,0],"sum_hessian":[1.9033709E1,1.1844124E1,7.1895843E0,1.0635663E1,1.2084608E0,3.5889535E0,3.600631E0,9.178797E0,1.4568663E0,1.1061442E0,2.482809E0,1.7853897E0,1.8152413E0],"tree_param":{"num_deleted":"0","num_feature":"13","num_nodes":"13","size_leaf_vector":"1"}},{"base_weights":[2.3905441E-4,-4.0500235E-2,4.363212E-2,5.098105E-1,-4.416653E-2,6.1533846E-2,1.5487234E-2,-3.0086143E-2,1.1602818E-2],"categories":[],"categories_nodes":[],"categories_segments":[],"categories_sizes":[],"default_left":[0,0,0,0,0,0,0,0,0],"id":91,"left_children":[1,-1,3,5,7,-1,-1,-1,-1],"loss_changes":[3.672389E-1,0E0,7.944167E-1,1.9640863E-2,7.2535104E-1,0E0,0E0,0E0,0E0],"parents":[2147483647,0,0,2,2,3,3,4,4],"right_children":[2,-1,4,6,8,-1,-1,-1,-1],"split_conditions":[2.0680262E5,-4.0500235E-2,1.8048653E-1,3.851562E4,6.882202E7,6.1533846E-2,1.5487234E-2,-3.0086143E-2,1.1602818E-2],"split_indices":[0,0,11,3,0,0,0,0,0],"split_type":[0,0,0,0,0,0,0,0,0],"sum_hessian":[1.8879126E1,1.0200149E0,1.7859112E1,2.0686672E0,1.5790443E1,1.0290627E0,1.0396043E0,5.7302437E0,1.00602E1],"tree_param":{"num_deleted":"0","num_feature":"13","num_nodes":"9","size_leaf_vector":"1"}},{"base_weights":[1.1720252E-3,1.4931269E-1,-1.2361871E-1,3.072222E-1,-2.4577291E-1,2.1737894E-1,-3.667969E-1,-2.0448808E-2,5.657229E-2,-3.161224E-2,-4.6829754E-3,6.766509E-2,-1.7359085E-2,2.0569816E-2,-5.1234514E-2],"categories":[],"categories_nodes":[],"categories_segments":[],"categories_sizes":[],"default_left":[0,0,0,0,0,0,0,0,0,0,0,0,0,0,0],"id":92,"left_children":[1,3,5,7,9,11,13,-1,-1,-1,-1,-1,-1,-1,-1],"loss_changes":[3.8459286E-1,6.68718E-1,1.0165167E0,1.073071E0,3.0971706E-2,1.0746222E0,6.8587166E-1,0E0,0E0,0E0,0E0,0E0,0E0,0E0,0E0],"parents":[2147483647,0,0,1,1,2,2,3,3,4,4,5,5,6,6],"right_children":[2,4,6,8,10,12,14,-1,-1,-1,-1,-1,-1,-1,-1],"split_conditions":[1.2E1,9.775E1,1.265E1,2.7593298E6,3.8514912E8,5.494984E4,5.8552E3,-2.0448808E-2,5.657229E-2,-3.161224E-2,-4.6829754E-3,6.766509E-2,-1.7359085E-2,2.0569816E-2,-5.1234514E-2],"split_indices":[5,1,1,0,0,3,4,0,0,0,0,0,0,0,0],"split_type":[0,0,0,0,0,0,0,0,0,0,0,0,0,0,0],"sum_hessian":[1.8805445E1,8.5084505E0,1.0296994E1,6.237722E0,2.2707286E0,4.330552E0,5.9664426E0,2.163651E0,4.0740705E0,1.2423909E0,1.0283377E0,1.6553336E0,2.6752183E0,1.1256356E0,4.840807E0],"tree_param":{"num_deleted":"0","num_feature":"13","num_nodes":"15","size_leaf_vector":"1"}},{"base_weights":[2.212784E-3,-5.391629E-2,3.3528794E-2,1.4311998E-1,-1.6507451E-1,4.5302305E-2,-3.0987397E-2,-7.148223E-2,-3.1008013E-3],"categories":[],"categories_nodes":[],"categories_segments":[],"categories_sizes":[],"default_left":[0,0,0,0,0,0,0,0,0],"id":93,"left_children":[1,3,-1,5,7,-1,-1,-1,-1],"loss_changes":[3.8387054E-1,4.0923315E-1,0E0,1.1070141E0,8.4165007E-1,0E0,0E0,0E0,0E0],"parents":[2147483647,0,0,1,1,3,3,4,4],"right_children":[2,4,-1,6,8,-1,-1,-1,-1],"split_conditions":[1.0695115E5,3.361841E4,3.3528794E-2,2.6620203E-1,1E0,4.5302305E-2,-3.0987397E-2,-7.148223E-2,-3.1008013E-3],"split_indices":[3,3,0,10,5,0,0,0,0],"split_type":[0,0,0,0,0,0,0,0,0],"sum_hessian":[1.856615E1,1.6605888E1,1.9602613E0,5.8856325E0,1.0720257E1,3.49474E0,2.3908925E0,1.2524914E0,9.467765E0],"tree_param":{"num_deleted":"0","num_feature":"13","num_nodes":"9","size_leaf_vector":"1"}},{"base_weights":[6.232872E-4,-3.2629024E-2,5.3161226E-2,-3.2332897E-2,4.548375E-2,8.18226E-3,-5.172338E-2],"categories":[],"categories_nodes":[],"categories_segments":[],"categories_sizes":[],"default_left":[0,0,0,0,0,0,0],"id":94,"left_children":[1,-1,3,5,-1,-1,-1],"loss_changes":[3.506658E-1,0E0,6.18411E-1,8.963397E-1,0E0,0E0,0E0],"parents":[2147483647,0,0,2,2,3,3],"right_children":[2,-1,4,6,-1,-1,-1],"split_conditions":[6.295E4,-3.2629024E-2,9.713718E0,3.8545046E8,4.548375E-2,8.18226E-3,-5.172338E-2],"split_indices":[2,0,11,0,0,0,0],"split_type":[0,0,0,0,0,0,0],"sum_hessian":[1.8406858E1,1.8271273E0,1.6579731E1,1.4428274E1,2.151457E0,1.2351694E1,2.0765798E0],"tree_param":{"num_deleted":"0","num_feature":"13","num_nodes":"7","size_leaf_vector":"1"}},{"base_weights":[-1.0394807E-3,3.174921E-2,-5.3557973E-2,1.2633115E-1,-2.54363E-1,2.9737575E-2,-2.8962567E-2,1.1255412E-2,-6.309113E-2],"categories":[],"categories_nodes":[],"categories_segments":[],"categories_sizes":[],"default_left":[0,0,0,0,0,0,0,0,0],"id":95,"left_children":[1,-1,3,5,7,-1,-1,-1,-1],"loss_changes":[3.3986396E-1,0E0,6.6152126E-1,7.875394E-1,1.2543714E0,0E0,0E0,0E0,0E0],"parents":[2147483647,0,0,2,2,3,3,4,4],"right_children":[2,-1,4,6,8,-1,-1,-1,-1],"split_conditions":[5.44E0,3.174921E-2,1.5E1,9.775E1,1.31627E5,2.9737575E-2,-2.8962567E-2,1.1255412E-2,-6.309113E-2],"split_indices":[1,0,5,1,2,0,0,0,0],"split_type":[0,0,0,0,0,0,0,0,0],"sum_hessian":[1.8299637E1,1.8760157E0,1.6423622E1,8.858606E0,7.565015E0,6.479336E0,2.3792713E0,4.1865935E0,3.3784213E0],"tree_param":{"num_deleted":"0","num_feature":"13","num_nodes":"9","size_leaf_vector":"1"}},{"base_weights":[-1.9980376E-3,-4.525865E-2,3.8732145E-2,-4.0500328E-1,4.7693785E-2,-3.388239E-3,-7.030272E-2,-4.1938326E-3,5.4909825E-2],"categories":[],"categories_nodes":[],"categories_segments":[],"categories_sizes":[],"default_left":[0,0,0,0,0,0,0,0,0],"id":96,"left_children":[1,3,-1,5,7,-1,-1,-1,-1],"loss_changes":[3.4063444E-1,6.266069E-1,0E0,4.0027273E-1,7.1184E-1,0E0,0E0,0E0,0E0],"parents":[2147483647,0,0,1,1,3,3,4,4],"right_children":[2,4,-1,6,8,-1,-1,-1,-1],"split_conditions":[1.437091E5,1.1448281E-1,3.8732145E-2,8.759711E-2,3.9316E5,-3.388239E-3,-7.030272E-2,-4.1938326E-3,5.4909825E-2],"split_indices":[3,10,0,10,2,0,0,0,0],"split_type":[0,0,0,0,0,0,0,0,0],"sum_hessian":[1.8184242E1,1.7161077E1,1.0231645E0,2.8343747E0,1.4326703E1,1.7583903E0,1.0759844E0,1.2931415E1,1.3952885E0],"tree_param":{"num_deleted":"0","num_feature":"13","num_nodes":"9","size_leaf_vector":"1"}},{"base_weights":[-9.7247725E-4,-3.1257942E-2,4.9784563E-2,-2.9400649E-2,4.2421672E-2,7.7460804E-3,-4.848787E-2],"categories":[],"categories_nodes":[],"categories_segments":[],"categories_sizes":[],"default_left":[0,0,0,0,0,0,0],"id":97,"left_children":[1,-1,3,5,-1,-1,-1],"loss_changes":[3.1738043E-1,0E0,5.2459234E-1,7.7702487E-1,0E0,0E0,0E0],"parents":[2147483647,0,0,2,2,3,3],"right_children":[2,-1,4,6,-1,-1,-1],"split_conditions":[6.295E4,-3.1257942E-2,9.713718E0,3.8545046E8,4.2421672E-2,7.7460804E-3,-4.848787E-2],"split_indices":[2,0,11,0,0,0,0],"split_type":[0,0,0,0,0,0,0],"sum_hessian":[1.8082834E1,1.8103586E0,1.6272476E1,1.4192512E1,2.0799644E0,1.2167729E1,2.0247827E0],"tree_param":{"num_deleted":"0","num_feature":"13","num_nodes":"7","size_leaf_vector":"1"}},{"base_weights":[-2.4523947E-3,3.0892132E-2,-5.4299083E-2,4.95101E-2,-3.7159595E-1,2.2470905E-2,-1.667378E-2,-7.544909E-2,2.8874967E-2],"categories":[],"categories_nodes":[],"categories_segments":[],"categories_sizes":[],"default_left":[0,0,0,0,0,0,0,0,0],"id":98,"left_children":[1,-1,3,5,7,-1,-1,-1,-1],"loss_changes":[3.2324836E-1,0E0,5.8246076E-1,5.597586E-1,1.3149714E0,0E0,0E0,0E0,0E0],"parents":[2147483647,0,0,2,2,3,3,4,4],"right_children":[2,-1,4,6,8,-1,-1,-1,-1],"split_conditions":[5.44E0,3.0892132E-2,3.4408623E-1,2.28136E5,7.849274E-1,2.2470905E-2,-1.667378E-2,-7.544909E-2,2.8874967E-2],"split_indices":[1,0,10,2,10,0,0,0,0],"split_type":[0,0,0,0,0,0,0,0,0],"sum_hessian":[1.7984142E1,1.8593218E0,1.612482E1,1.2785715E1,3.339106E0,7.041627E0,5.744088E0,2.023329E0,1.3157771E0],"tree_param":{"num_deleted":"0","num_feature":"13","num_nodes":"9","size_leaf_vector":"1"}},{"base_weights":[-2.9517182E-3,-6.1176736E-2,2.7114713E-1,1.1733859E-2,-4.4262093E-2,4.1743096E-2,-3.6220755E-3,1.2676718E-2,-2.9166883E-2],"categories":[],"categories_nodes":[],"categories_segments":[],"categories_sizes":[],"default_left":[0,0,0,0,0,0,0,0,0],"id":99,"left_children":[1,3,5,7,-1,-1,-1,-1,-1],"loss_changes":[3.1670165E-1,4.5924184E-1,1.7153668E-1,5.49339E-1,0E0,0E0,0E0,0E0,0E0],"parents":[2147483647,0,0,1,1,2,2,3,3],"right_children":[2,4,6,8,-1,-1,-1,-1,-1],"split_conditions":[8.616515E4,4.37148E5,1.026329E6,3.8545046E8,-4.4262093E-2,4.1743096E-2,-3.6220755E-3,1.2676718E-2,-2.9166883E-2],"split_indices":[3,2,2,0,0,0,0,0,0],"split_type":[0,0,0,0,0,0,0,0,0],"sum_hessian":[1.7804815E1,1.5326017E1,2.4787974E0,1.36803465E1,1.6456716E0,1.4368725E0,1.041925E0,1.0341579E1,3.3387663E0],"tree_param":{"num_deleted":"0","num_feature":"13","num_nodes":"9","size_leaf_vector":"1"}}]},"name":"gbtree"},"learner_model_param":{"base_score":"[5E-1]","boost_from_average":"1","num_class":"0","num_feature":"13","num_target":"1"},"objective":{"name":"binary:logistic","reg_loss_param":{"scale_pos_weight":"2.85714293"}}},"version":[3,2,0]}